{"learner":{"attributes":{"best_iteration":"83","best_score":"7.716513825185766","scikit_learn":"{\"_estimator_type\": \"regressor\"}"},"feature_names":["pm1","pm25","pm10","temperatura","humedad","hora_sin","hora_cos","dia_sin","dia_cos","mes_num","aqi_lag_1","aqi_lag_2","aqi_lag_3","aqi_lag_6","aqi_lag_12","pm25_lag_1","pm25_lag_2","pm25_lag_3","pm25_lag_6","pm25_lag_12","pm10_lag_1","pm10_lag_2","pm10_lag_3","pm10_lag_6","pm10_lag_12","pm1_lag_1","pm1_lag_2","pm1_lag_3","pm1_lag_6","pm1_lag_12","pm25_roll_mean_3","pm10_roll_mean_3","aqi_roll_mean_3","pm25_roll_mean_6","pm10_roll_mean_6","aqi_roll_mean_6","pm25_roll_mean_12","pm10_roll_mean_12","aqi_roll_mean_12","aqi_diff_1","aqi_diff_3","pm25_diff_1","pm25_diff_3","pm10_diff_1","pm10_diff_3"],"feature_types":["int","int","int","int","int","float","float","float","float","int","float","float","float","float","float","float","float","float","float","float","float","float","float","float","float","float","float","float","float","float","float","float","float","float","float","float","float","float","float","float","float","float","float","float","float"],"gradient_booster":{"model":{"cats":{"enc":[],"feature_segments":[],"sorted_idx":[]},"gbtree_model_param":{"num_parallel_tree":"1","num_trees":"104"},"iteration_indptr":[0,1,2,3,4,5,6,7,8,9,10,11,12,13,14,15,16,17,18,19,20,21,22,23,24,25,26,27,28,29,30,31,32,33,34,35,36,37,38,39,40,41,42,43,44,45,46,47,48,49,50,51,52,53,54,55,56,57,58,59,60,61,62,63,64,65,66,67,68,69,70,71,72,73,74,75,76,77,78,79,80,81,82,83,84,85,86,87,88,89,90,91,92,93,94,95,96,97,98,99,100,101,102,103,104],"tree_info":[0,0,0,0,0,0,0,0,0,0,0,0,0,0,0,0,0,0,0,0,0,0,0,0,0,0,0,0,0,0,0,0,0,0,0,0,0,0,0,0,0,0,0,0,0,0,0,0,0,0,0,0,0,0,0,0,0,0,0,0,0,0,0,0,0,0,0,0,0,0,0,0,0,0,0,0,0,0,0,0,0,0,0,0,0,0,0,0,0,0,0,0,0,0,0,0,0,0,0,0,0,0,0,0],"trees":[{"base_weights":[1.3931237E-2,-2.5316082E1,1.0359738E1,-3.511543E1,-1.6041601E1,4.4180737E0,2.255817E1,-2.0813982E0,-1.5122865E0,-1.0436385E0,-5.8093756E-1,-4.5582544E-2,4.419847E-1,8.970122E-1,1.78204E0],"categories":[],"categories_nodes":[],"categories_segments":[],"categories_sizes":[],"default_left":[0,0,0,0,0,0,0,0,0,0,0,0,0,0,0],"id":0,"left_children":[1,3,5,7,9,11,13,-1,-1,-1,-1,-1,-1,-1,-1],"loss_changes":[1.9078712E7,1.917935E6,3.746324E6,3.23633E5,2.3146E5,8.1920306E5,1.021886E6,0E0,0E0,0E0,0E0,0E0,0E0,0E0,0E0],"parents":[2147483647,0,0,1,1,2,2,3,3,4,4,5,5,6,6],"right_children":[2,4,6,8,10,12,14,-1,-1,-1,-1,-1,-1,-1,-1],"split_conditions":[2.9E1,1.3E1,6.0333332E1,8E0,2.3E1,5.6333332E1,6.2E1,-2.0813982E0,-1.5122865E0,-1.0436385E0,-5.8093756E-1,-4.5582544E-2,4.419847E-1,8.970122E-1,1.78204E0],"split_indices":[1,0,34,0,1,32,1,0,0,0,0,0,0,0,0],"split_type":[0,0,0,0,0,0,0,0,0,0,0,0,0,0,0],"sum_hessian":[7.28E4,2.1111E4,5.1689E4,1.0263E4,1.0848E4,3.476E4,1.6929E4,4.386E3,5.877E3,5.182E3,5.666E3,1.5762E4,1.8998E4,1.2515E4,4.414E3],"tree_param":{"num_deleted":"0","num_feature":"45","num_nodes":"15","size_leaf_vector":"1"}},{"base_weights":[3.6371592E-2,-2.48994E1,9.4719305E0,-3.3919456E1,-1.6689571E1,3.8491175E0,2.1451942E1,-1.995118E0,-1.4818481E0,-1.0534039E0,-6.3450706E-1,-8.6838365E-2,4.041136E-1,1.0222403E0,4.043644E0],"categories":[],"categories_nodes":[],"categories_segments":[],"categories_sizes":[],"default_left":[0,0,0,0,0,0,0,0,0,0,0,0,0,0,0],"id":1,"left_children":[1,3,5,7,9,11,13,-1,-1,-1,-1,-1,-1,-1,-1],"loss_changes":[1.7179656E7,1.483503E6,3.568174E6,2.42894E5,1.8340525E5,8.525396E5,1.0101175E6,0E0,0E0,0E0,0E0,0E0,0E0,0E0,0E0],"parents":[2147483647,0,0,1,1,2,2,3,3,4,4,5,5,6,6],"right_children":[2,4,6,8,10,12,14,-1,-1,-1,-1,-1,-1,-1,-1],"split_conditions":[2.8E1,1.6E1,6.0333332E1,9E0,2.2E1,5.6E1,1.22833336E2,-1.995118E0,-1.4818481E0,-1.0534039E0,-6.3450706E-1,-8.6838365E-2,4.041136E-1,1.0222403E0,4.043644E0],"split_indices":[1,1,37,1,1,10,38,0,0,0,0,0,0,0,0],"split_type":[0,0,0,0,0,0,0,0,0,0,0,0,0,0,0],"sum_hessian":[7.3014E4,2.0043E4,5.2971E4,9.548E3,1.0495E4,3.6052E4,1.6919E4,3.978E3,5.57E3,5.007E3,5.488E3,1.5543E4,2.0509E4,1.6639E4,2.8E2],"tree_param":{"num_deleted":"0","num_feature":"45","num_nodes":"15","size_leaf_vector":"1"}},{"base_weights":[-7.986703E-2,-2.2037056E1,9.632797E0,-3.1499119E1,-1.3605985E1,5.0606055E0,2.2259178E1,-1.8811806E0,-1.3597744E0,-9.038426E-1,-4.696068E-1,1.9776147E-2,4.6946898E-1,1.0605494E0,3.5672517E0],"categories":[],"categories_nodes":[],"categories_segments":[],"categories_sizes":[],"default_left":[0,0,0,0,0,0,0,0,0,0,0,0,0,0,0],"id":2,"left_children":[1,3,5,7,9,11,13,-1,-1,-1,-1,-1,-1,-1,-1],"loss_changes":[1.5558801E7,1.784285E6,2.91991E6,2.76308E5,2.2269925E5,7.49931E5,6.895615E5,0E0,0E0,0E0,0E0,0E0,0E0,0E0,0E0],"parents":[2147483647,0,0,1,1,2,2,3,3,4,4,5,5,6,6],"right_children":[2,4,6,8,10,12,14,-1,-1,-1,-1,-1,-1,-1,-1],"split_conditions":[3E1,1.7E1,6.3E1,8E0,2.4E1,3.9666668E1,1.2866667E2,-1.8811806E0,-1.3597744E0,-9.038426E-1,-4.696068E-1,1.9776147E-2,4.6946898E-1,1.0605494E0,3.5672517E0],"split_indices":[1,1,37,0,1,30,35,0,0,0,0,0,0,0,0],"split_type":[0,0,0,0,0,0,0,0,0,0,0,0,0,0,0],"sum_hessian":[7.2953E4,2.2373E4,5.058E4,1.054E4,1.1833E4,3.7135E4,1.3445E4,4.345E3,6.195E3,5.739E3,6.094E3,1.7874E4,1.9261E4,1.3166E4,2.79E2],"tree_param":{"num_deleted":"0","num_feature":"45","num_nodes":"15","size_leaf_vector":"1"}},{"base_weights":[1.7470965E-2,-2.0969097E1,9.233315E0,-2.9909754E1,-1.2909074E1,5.6720595E0,2.4211706E1,-1.8011795E0,-1.2987149E0,-8.549561E-1,-4.4293258E-1,4.1367896E-2,5.149628E-1,1.1401148E0,3.9034593E0],"categories":[],"categories_nodes":[],"categories_segments":[],"categories_sizes":[],"default_left":[0,0,0,0,0,0,0,0,0,0,0,0,0,0,0],"id":3,"left_children":[1,3,5,7,9,11,13,-1,-1,-1,-1,-1,-1,-1,-1],"loss_changes":[1.4098932E7,1.602324E6,2.7017445E6,2.52299E5,1.9834475E5,9.1742875E5,7.3586E5,0E0,0E0,0E0,0E0,0E0,0E0,0E0,0E0],"parents":[2147483647,0,0,1,1,2,2,3,3,4,4,5,5,6,6],"right_children":[2,4,6,8,10,12,14,-1,-1,-1,-1,-1,-1,-1,-1],"split_conditions":[4.6E1,1.7E1,6.7E1,9E0,3.6666668E1,4.1E1,1.19416664E2,-1.8011795E0,-1.2987149E0,-8.549561E-1,-4.4293258E-1,4.1367896E-2,5.149628E-1,1.1401148E0,3.9034593E0],"split_indices":[32,15,2,30,35,1,36,0,0,0,0,0,0,0,0],"split_type":[0,0,0,0,0,0,0,0,0,0,0,0,0,0,0],"sum_hessian":[7.2894E4,2.2242E4,5.0652E4,1.0543E4,1.1699E4,4.0924E4,9.728E3,4.124E3,6.419E3,5.748E3,5.951E3,1.9993E4,2.0931E4,9.482E3,2.46E2],"tree_param":{"num_deleted":"0","num_feature":"45","num_nodes":"15","size_leaf_vector":"1"}},{"base_weights":[2.1582205E-2,-1.9893368E1,8.742007E0,-2.7826021E1,-1.1598365E1,5.6486516E0,2.4523056E1,-1.6941919E0,-1.1898434E0,-7.439806E-1,-3.898438E-1,4.9982477E-2,5.073358E-1,1.1420956E0,3.5784512E0],"categories":[],"categories_nodes":[],"categories_segments":[],"categories_sizes":[],"default_left":[0,0,0,0,0,0,0,0,0,0,0,0,0,0,0],"id":4,"left_children":[1,3,5,7,9,11,13,-1,-1,-1,-1,-1,-1,-1,-1],"loss_changes":[1.2684278E7,1.463099E6,2.479443E6,2.76266E5,1.354805E5,8.8814775E5,6.559315E5,0E0,0E0,0E0,0E0,0E0,0E0,0E0,0E0],"parents":[2147483647,0,0,1,1,2,2,3,3,4,4,5,5,6,6],"right_children":[2,4,6,8,10,12,14,-1,-1,-1,-1,-1,-1,-1,-1],"split_conditions":[3E1,1.4E1,6.8166664E1,1E1,2.5E1,5.1E1,1.22833336E2,-1.6941919E0,-1.1898434E0,-7.439806E-1,-3.898438E-1,4.9982477E-2,5.073358E-1,1.1420956E0,3.5784512E0],"split_indices":[1,0,34,1,1,20,38,0,0,0,0,0,0,0,0],"split_type":[0,0,0,0,0,0,0,0,0,0,0,0,0,0,0],"sum_hessian":[7.3035E4,2.2241E4,5.0794E4,1.1367E4,1.0874E4,4.2471E4,8.323E3,4.536E3,6.831E3,5.834E3,5.04E3,2.0886E4,2.1585E4,8.038E3,2.85E2],"tree_param":{"num_deleted":"0","num_feature":"45","num_nodes":"15","size_leaf_vector":"1"}},{"base_weights":[4.3556426E-2,-1.8714228E1,8.427254E0,-2.6399258E1,-1.0931882E1,4.5099607E0,1.9487938E1,-1.6370972E0,-1.1505774E0,-7.196172E-1,-3.5269853E-1,-2.739487E-3,3.936118E-1,8.271251E-1,1.7894939E0],"categories":[],"categories_nodes":[],"categories_segments":[],"categories_sizes":[],"default_left":[0,0,0,0,0,0,0,0,0,0,0,0,0,0,0],"id":5,"left_children":[1,3,5,7,9,11,13,-1,-1,-1,-1,-1,-1,-1,-1],"loss_changes":[1.1460921E7,1.3459205E6,2.1821862E6,2.422175E5,1.4997475E5,5.7089125E5,6.316015E5,0E0,0E0,0E0,0E0,0E0,0E0,0E0,0E0],"parents":[2147483647,0,0,1,1,2,2,3,3,4,4,5,5,6,6],"right_children":[2,4,6,8,10,12,14,-1,-1,-1,-1,-1,-1,-1,-1],"split_conditions":[2.9833334E1,1.4E1,6.3333332E1,9E0,2.4666666E1,3.9E1,7E1,-1.6370972E0,-1.1505774E0,-7.196172E-1,-3.5269853E-1,-2.739487E-3,3.936118E-1,8.271251E-1,1.7894939E0],"split_indices":[33,0,37,15,33,1,1,0,0,0,0,0,0,0,0],"split_type":[0,0,0,0,0,0,0,0,0,0,0,0,0,0,0],"sum_hessian":[7.2876E4,2.251E4,5.0366E4,1.1324E4,1.1186E4,3.7195E4,1.3171E4,3.938E3,7.386E3,5.909E3,5.277E3,1.5777E4,2.1418E4,1.1158E4,2.013E3],"tree_param":{"num_deleted":"0","num_feature":"45","num_nodes":"15","size_leaf_vector":"1"}},{"base_weights":[2.3857278E-3,-1.7189314E1,8.326275E0,-2.5240547E1,-9.892331E0,5.629199E0,2.284359E1,-1.5767254E0,-1.1067251E0,-6.682965E-1,-3.1709835E-1,9.438637E-2,4.975639E-1,1.0571135E0,2.978627E0],"categories":[],"categories_nodes":[],"categories_segments":[],"categories_sizes":[],"default_left":[0,0,0,0,0,0,0,0,0,0,0,0,0,0,0],"id":6,"left_children":[1,3,5,7,9,11,13,-1,-1,-1,-1,-1,-1,-1,-1],"loss_changes":[1.0421818E7,1.395426E6,1.9210862E6,2.197475E5,1.5360212E5,6.691806E5,4.784765E5,0E0,0E0,0E0,0E0,0E0,0E0,0E0,0E0],"parents":[2147483647,0,0,1,1,2,2,3,3,4,4,5,5,6,6],"right_children":[2,4,6,8,10,12,14,-1,-1,-1,-1,-1,-1,-1,-1],"split_conditions":[3.1E1,1.8E1,6.9083336E1,7E0,1.9E1,5.3E1,6.8E1,-1.5767254E0,-1.1067251E0,-6.682965E-1,-3.1709835E-1,9.438637E-2,4.975639E-1,1.0571135E0,2.978627E0],"split_indices":[1,1,37,0,0,31,0,0,0,0,0,0,0,0,0],"split_type":[0,0,0,0,0,0,0,0,0,0,0,0,0,0,0],"sum_hessian":[7.2825E4,2.3757E4,4.9068E4,1.1293E4,1.2464E4,4.1382E4,7.686E3,3.727E3,7.566E3,6.298E3,6.166E3,2.2182E4,1.92E4,7.348E3,3.38E2],"tree_param":{"num_deleted":"0","num_feature":"45","num_nodes":"15","size_leaf_vector":"1"}},{"base_weights":[-2.315982E-2,-1.7248013E1,7.5216208E0,-2.5485237E1,-1.1286005E1,3.291201E0,1.62639E1,-1.5377891E0,-1.1455033E0,-7.6220965E-1,-3.8507724E-1,-5.9865236E-2,2.9463658E-1,6.3980734E-1,1.3793596E0],"categories":[],"categories_nodes":[],"categories_segments":[],"categories_sizes":[],"default_left":[0,0,0,0,0,0,0,0,0,0,0,0,0,0,0],"id":7,"left_children":[1,3,5,7,9,11,13,-1,-1,-1,-1,-1,-1,-1,-1],"loss_changes":[9.47405E6,1.0900855E6,1.8748158E6,1.25468E5,1.826265E5,3.9896106E5,6.485985E5,0E0,0E0,0E0,0E0,0E0,0E0,0E0,0E0],"parents":[2147483647,0,0,1,1,2,2,3,3,4,4,5,5,6,6],"right_children":[2,4,6,8,10,12,14,-1,-1,-1,-1,-1,-1,-1,-1],"split_conditions":[4.5833332E1,1.5333333E1,6.1E1,8E0,2.3E1,3.7E1,7.4833336E1,-1.5377891E0,-1.1455033E0,-7.6220965E-1,-3.8507724E-1,-5.9865236E-2,2.9463658E-1,6.3980734E-1,1.3793596E0],"split_indices":[35,30,2,31,1,1,37,0,0,0,0,0,0,0,0],"split_type":[0,0,0,0,0,0,0,0,0,0,0,0,0,0,0],"sum_hessian":[7.2898E4,2.2204E4,5.0694E4,9.321E3,1.2883E4,3.4164E4,1.653E4,3.054E3,6.267E3,6.12E3,6.763E3,1.2536E4,2.1628E4,1.2657E4,3.873E3],"tree_param":{"num_deleted":"0","num_feature":"45","num_nodes":"15","size_leaf_vector":"1"}},{"base_weights":[4.063757E-2,-1.4786446E1,7.8847566E0,-2.2651323E1,-8.23775E0,5.478279E0,2.108063E1,-1.3530865E0,-9.4303095E-1,-6.029912E-1,-2.760794E-1,1.0198289E-1,4.5101595E-1,9.711178E-1,3.3104851E0],"categories":[],"categories_nodes":[],"categories_segments":[],"categories_sizes":[],"default_left":[0,0,0,0,0,0,0,0,0,0,0,0,0,0,0],"id":8,"left_children":[1,3,5,7,9,11,13,-1,-1,-1,-1,-1,-1,-1,-1],"loss_changes":[8.495295E6,1.3013695E6,1.5168038E6,1.911835E5,1.4308356E5,4.9208738E5,5.4941975E5,0E0,0E0,0E0,0E0,0E0,0E0,0E0,0E0],"parents":[2147483647,0,0,1,1,2,2,3,3,4,4,5,5,6,6],"right_children":[2,4,6,8,10,12,14,-1,-1,-1,-1,-1,-1,-1,-1],"split_conditions":[3.2E1,2E1,7E1,9E0,2.4666666E1,4.3E1,1.22833336E2,-1.3530865E0,-9.4303095E-1,-6.029912E-1,-2.760794E-1,1.0198289E-1,4.5101595E-1,9.711178E-1,3.3104851E0],"split_indices":[1,2,2,0,33,1,38,0,0,0,0,0,0,0,0],"split_type":[0,0,0,0,0,0,0,0,0,0,0,0,0,0,0],"sum_hessian":[7.304E4,2.5271E4,4.7769E4,1.148E4,1.3791E4,4.0403E4,7.366E3,5.302E3,6.178E3,5.727E3,8.064E3,2.0502E4,1.9901E4,7.107E3,2.59E2],"tree_param":{"num_deleted":"0","num_feature":"45","num_nodes":"15","size_leaf_vector":"1"}},{"base_weights":[-5.101262E-3,-1.383592E1,7.623448E0,-2.1104118E1,-7.290593E0,5.3682733E0,2.0791355E1,-1.3545734E0,-9.12881E-1,-5.472953E-1,-2.4218293E-1,1.1310699E-1,4.5143506E-1,9.575886E-1,2.8870995E0],"categories":[],"categories_nodes":[],"categories_segments":[],"categories_sizes":[],"default_left":[0,0,0,0,0,0,0,0,0,0,0,0,0,0,0],"id":9,"left_children":[1,3,5,7,9,11,13,-1,-1,-1,-1,-1,-1,-1,-1],"loss_changes":[7.70153E6,1.2342075E6,1.3968898E6,2.08788E5,1.2205794E5,4.5667512E5,4.1505825E5,0E0,0E0,0E0,0E0,0E0,0E0,0E0,0E0],"parents":[2147483647,0,0,1,1,2,2,3,3,4,4,5,5,6,6],"right_children":[2,4,6,8,10,12,14,-1,-1,-1,-1,-1,-1,-1,-1],"split_conditions":[4.9666668E1,2.9333334E1,7.0333336E1,9.916667E0,1.9E1,4.4E1,1.2866667E2,-1.3545734E0,-9.12881E-1,-5.472953E-1,-2.4218293E-1,1.1310699E-1,4.5143506E-1,9.575886E-1,2.8870995E0],"split_indices":[32,35,37,37,0,1,35,0,0,0,0,0,0,0,0],"split_type":[0,0,0,0,0,0,0,0,0,0,0,0,0,0,0],"sum_hessian":[7.2991E4,2.5947E4,4.7044E4,1.2293E4,1.3654E4,4.0167E4,6.877E3,3.957E3,8.336E3,5.473E3,8.181E3,2.173E4,1.8437E4,6.587E3,2.9E2],"tree_param":{"num_deleted":"0","num_feature":"45","num_nodes":"15","size_leaf_vector":"1"}},{"base_weights":[2.0217865E-3,-1.531756E1,6.221312E0,-2.2115154E1,-1.03151245E1,2.1546056E0,1.31371565E1,-1.4093907E0,-1.0194434E0,-6.9363624E-1,-3.770791E-1,-9.567541E-2,2.1710673E-1,5.0539535E-1,1.154768E0],"categories":[],"categories_nodes":[],"categories_segments":[],"categories_sizes":[],"default_left":[0,0,0,0,0,0,0,0,0,0,0,0,0,0,0],"id":10,"left_children":[1,3,5,7,9,11,13,-1,-1,-1,-1,-1,-1,-1,-1],"loss_changes":[6.9403515E6,7.14889E5,1.4571116E6,9.2595E4,1.19425875E5,2.903686E5,5.78364E5,0E0,0E0,0E0,0E0,0E0,0E0,0E0,0E0],"parents":[2147483647,0,0,1,1,2,2,3,3,4,4,5,5,6,6],"right_children":[2,4,6,8,10,12,14,-1,-1,-1,-1,-1,-1,-1,-1],"split_conditions":[4.4333332E1,1.2E1,5.8666668E1,5E0,3.3E1,2.5E1,7.9E1,-1.4093907E0,-1.0194434E0,-6.9363624E-1,-3.770791E-1,-9.567541E-2,2.1710673E-1,5.0539535E-1,1.154768E0],"split_indices":[35,0,37,0,35,0,10,0,0,0,0,0,0,0,0],"split_type":[0,0,0,0,0,0,0,0,0,0,0,0,0,0,0],"sum_hessian":[7.2841E4,2.1032E4,5.1809E4,8.914E3,1.2118E4,3.2626E4,1.9183E4,1.968E3,6.946E3,5.306E3,6.812E3,1.1409E4,2.1217E4,1.4711E4,4.472E3],"tree_param":{"num_deleted":"0","num_feature":"45","num_nodes":"15","size_leaf_vector":"1"}},{"base_weights":[-1.4817897E-2,-1.2674487E1,6.7427998E0,-1.9186026E1,-6.6722937E0,4.6752353E0,1.8154163E1,-1.1671636E0,-7.9765934E-1,-5.0134057E-1,-2.3444982E-1,1.0473919E-1,4.0752777E-1,8.3158845E-1,2.967664E0],"categories":[],"categories_nodes":[],"categories_segments":[],"categories_sizes":[],"default_left":[0,0,0,0,0,0,0,0,0,0,0,0,0,0,0],"id":11,"left_children":[1,3,5,7,9,11,13,-1,-1,-1,-1,-1,-1,-1,-1],"loss_changes":[6.21977E6,9.88716E5,1.1182482E6,1.62535E5,8.753806E4,3.598775E5,4.545265E5,0E0,0E0,0E0,0E0,0E0,0E0,0E0,0E0],"parents":[2147483647,0,0,1,1,2,2,3,3,4,4,5,5,6,6],"right_children":[2,4,6,8,10,12,14,-1,-1,-1,-1,-1,-1,-1,-1],"split_conditions":[3.2E1,1.9E1,7E1,9E0,3.8E1,5.5E1,1.22833336E2,-1.1671636E0,-7.9765934E-1,-5.0134057E-1,-2.3444982E-1,1.0473919E-1,4.0752777E-1,8.3158845E-1,2.967664E0],"split_indices":[1,1,2,0,38,2,38,0,0,0,0,0,0,0,0],"split_type":[0,0,0,0,0,0,0,0,0,0,0,0,0,0,0],"sum_hessian":[7.2701E4,2.5301E4,4.74E4,1.2134E4,1.3167E4,4.0131E4,7.269E3,5.304E3,6.83E3,4.89E3,8.277E3,2.3032E4,1.7099E4,7.012E3,2.57E2],"tree_param":{"num_deleted":"0","num_feature":"45","num_nodes":"15","size_leaf_vector":"1"}},{"base_weights":[-7.031178E-3,-1.2107438E1,6.465473E0,-1.833847E1,-6.587856E0,4.4244437E0,1.7199854E1,-1.1374893E0,-7.806994E-1,-4.8049936E-1,-2.176045E-1,8.894082E-2,3.766931E-1,7.963654E-1,2.6457455E0],"categories":[],"categories_nodes":[],"categories_segments":[],"categories_sizes":[],"default_left":[0,0,0,0,0,0,0,0,0,0,0,0,0,0,0],"id":12,"left_children":[1,3,5,7,9,11,13,-1,-1,-1,-1,-1,-1,-1,-1],"loss_changes":[5.7118735E6,8.73924E5,1.0408876E6,1.4293475E5,9.1013875E4,3.2842062E5,3.4371E5,0E0,0E0,0E0,0E0,0E0,0E0,0E0,0E0],"parents":[2147483647,0,0,1,1,2,2,3,3,4,4,5,5,6,6],"right_children":[2,4,6,8,10,12,14,-1,-1,-1,-1,-1,-1,-1,-1],"split_conditions":[3.2E1,2.9E1,6.9333336E1,9.833333E0,1.9E1,5.3666668E1,1.06E2,-1.1374893E0,-7.806994E-1,-4.8049936E-1,-2.176045E-1,8.894082E-2,3.766931E-1,7.963654E-1,2.6457455E0],"split_indices":[1,10,31,33,0,31,19,0,0,0,0,0,0,0,0],"split_type":[0,0,0,0,0,0,0,0,0,0,0,0,0,0,0],"sum_hessian":[7.2927E4,2.5414E4,4.7513E4,1.1936E4,1.3478E4,3.9924E4,7.589E3,4.553E3,7.383E3,5.729E3,7.749E3,2.1572E4,1.8352E4,7.33E3,2.59E2],"tree_param":{"num_deleted":"0","num_feature":"45","num_nodes":"15","size_leaf_vector":"1"}},{"base_weights":[-1.1673316E-2,-1.1295595E1,6.2092557E0,-1.6973127E1,-5.690579E0,4.392519E0,1.7215446E1,-1.033975E0,-6.838785E-1,-4.223647E-1,-1.9634199E-1,7.9181395E-2,3.5618874E-1,7.9224944E-1,2.4687374E0],"categories":[],"categories_nodes":[],"categories_segments":[],"categories_sizes":[],"default_left":[0,0,0,0,0,0,0,0,0,0,0,0,0,0,0],"id":13,"left_children":[1,3,5,7,9,11,13,-1,-1,-1,-1,-1,-1,-1,-1],"loss_changes":[5.1005465E6,8.2159325E5,9.364366E5,1.56255E5,6.3139625E4,3.0842325E5,2.9126588E5,0E0,0E0,0E0,0E0,0E0,0E0,0E0,0E0],"parents":[2147483647,0,0,1,1,2,2,3,3,4,4,5,5,6,6],"right_children":[2,4,6,8,10,12,14,-1,-1,-1,-1,-1,-1,-1,-1],"split_conditions":[3.7E1,2E1,7.0666664E1,1.3E1,3.95E1,5.3E1,7.3E1,-1.033975E0,-6.838785E-1,-4.223647E-1,-1.9634199E-1,7.9181395E-2,3.5618874E-1,7.9224944E-1,2.4687374E0],"split_indices":[2,1,34,2,35,2,29,0,0,0,0,0,0,0,0],"split_type":[0,0,0,0,0,0,0,0,0,0,0,0,0,0,0],"sum_hessian":[7.2658E4,2.5821E4,4.6837E4,1.2826E4,1.2995E4,4.0203E4,6.634E3,6.033E3,6.793E3,5.068E3,7.927E3,1.9821E4,2.0382E4,6.365E3,2.69E2],"tree_param":{"num_deleted":"0","num_feature":"45","num_nodes":"15","size_leaf_vector":"1"}},{"base_weights":[4.6721953E-3,-1.054955E1,6.006228E0,-1.6578232E1,-5.604717E0,4.3788595E0,1.7058807E1,-1.0564445E0,-7.142791E-1,-4.628191E-1,-1.9932002E-1,1.04825094E-1,3.7155926E-1,7.852878E-1,2.376394E0],"categories":[],"categories_nodes":[],"categories_segments":[],"categories_sizes":[],"default_left":[0,0,0,0,0,0,0,0,0,0,0,0,0,0,0],"id":14,"left_children":[1,3,5,7,9,11,13,-1,-1,-1,-1,-1,-1,-1,-1],"loss_changes":[4.6296485E6,7.89711E5,8.3796325E5,1.24099E5,8.59775E4,2.8293044E5,2.4538625E5,0E0,0E0,0E0,0E0,0E0,0E0,0E0,0E0],"parents":[2147483647,0,0,1,1,2,2,3,3,4,4,5,5,6,6],"right_children":[2,4,6,8,10,12,14,-1,-1,-1,-1,-1,-1,-1,-1],"split_conditions":[5.0166668E1,2.8666666E1,7.2E1,9.916667E0,1.8E1,5.6E1,7.7E1,-1.0564445E0,-7.142791E-1,-4.628191E-1,-1.9932002E-1,1.04825094E-1,3.7155926E-1,7.852878E-1,2.376394E0],"split_indices":[35,35,2,37,0,2,28,0,0,0,0,0,0,0,0],"split_type":[0,0,0,0,0,0,0,0,0,0,0,0,0,0,0],"sum_hessian":[7.3087E4,2.6494E4,4.6593E4,1.1937E4,1.4557E4,4.0615E4,5.978E3,3.995E3,7.942E3,4.468E3,1.0089E4,2.324E4,1.7375E4,5.726E3,2.52E2],"tree_param":{"num_deleted":"0","num_feature":"45","num_nodes":"15","size_leaf_vector":"1"}},{"base_weights":[-9.051757E-3,-1.0305537E1,5.577732E0,-1.6671144E1,-6.240116E0,4.1555276E0,1.7210138E1,-1.1240027E0,-7.6211333E-1,-4.5342875E-1,-1.8901066E-1,7.973847E-2,3.4704286E-1,7.7391154E-1,2.3785129E0],"categories":[],"categories_nodes":[],"categories_segments":[],"categories_sizes":[],"default_left":[0,0,0,0,0,0,0,0,0,0,0,0,0,0,0],"id":15,"left_children":[1,3,5,7,9,11,13,-1,-1,-1,-1,-1,-1,-1,-1],"loss_changes":[4.1996725E6,6.64398E5,7.828606E5,8.254675E4,1.0899931E5,3.0078738E5,2.6997025E5,0E0,0E0,0E0,0E0,0E0,0E0,0E0,0E0],"parents":[2147483647,0,0,1,1,2,2,3,3,4,4,5,5,6,6],"right_children":[2,4,6,8,10,12,14,-1,-1,-1,-1,-1,-1,-1,-1],"split_conditions":[4.9333332E1,1.6166666E1,7.2833336E1,6E0,2.5E1,4.4E1,1.22833336E2,-1.1240027E0,-7.6211333E-1,-4.5342875E-1,-1.8901066E-1,7.973847E-2,3.4704286E-1,7.7391154E-1,2.3785129E0],"split_indices":[35,33,34,1,1,1,38,0,0,0,0,0,0,0,0],"split_type":[0,0,0,0,0,0,0,0,0,0,0,0,0,0,0],"sum_hessian":[7.3004E4,2.5678E4,4.7326E4,1.0006E4,1.5672E4,4.2172E4,5.154E3,1.971E3,8.035E3,7.288E3,8.384E3,2.1973E4,2.0199E4,4.878E3,2.76E2],"tree_param":{"num_deleted":"0","num_feature":"45","num_nodes":"15","size_leaf_vector":"1"}},{"base_weights":[-2.474779E-2,-9.339584E0,5.5823503E0,-1.4910803E1,-4.853122E0,4.25724E0,1.6536932E1,-8.94382E-1,-6.0058206E-1,-3.8234207E-1,-1.6346045E-1,9.3940206E-2,3.361031E-1,7.521779E-1,2.2037864E0],"categories":[],"categories_nodes":[],"categories_segments":[],"categories_sizes":[],"default_left":[0,0,0,0,0,0,0,0,0,0,0,0,0,0,0],"id":16,"left_children":[1,3,5,7,9,11,13,-1,-1,-1,-1,-1,-1,-1,-1],"loss_changes":[3.803122E6,6.8379175E5,6.5971125E5,1.0500375E5,6.7037875E4,2.3771019E5,2.0070062E5,0E0,0E0,0E0,0E0,0E0,0E0,0E0,0E0],"parents":[2147483647,0,0,1,1,2,2,3,3,4,4,5,5,6,6],"right_children":[2,4,6,8,10,12,14,-1,-1,-1,-1,-1,-1,-1,-1],"split_conditions":[3.3E1,1.9E1,7.3333336E1,1.2E1,3.9E1,6.1833332E1,1.04E2,-8.94382E-1,-6.0058206E-1,-3.8234207E-1,-1.6346045E-1,9.3940206E-2,3.361031E-1,7.521779E-1,2.2037864E0],"split_indices":[1,1,31,1,35,35,19,0,0,0,0,0,0,0,0],"split_type":[0,0,0,0,0,0,0,0,0,0,0,0,0,0,0],"sum_hessian":[7.2813E4,2.736E4,4.5453E4,1.2203E4,1.5157E4,4.055E4,4.903E3,6.017E3,6.186E3,5.482E3,9.675E3,2.0638E4,1.9912E4,4.653E3,2.5E2],"tree_param":{"num_deleted":"0","num_feature":"45","num_nodes":"15","size_leaf_vector":"1"}},{"base_weights":[-2.269293E-2,-8.783358E0,5.332582E0,-1.4364233E1,-4.738029E0,3.8299172E0,1.4222175E1,-9.5160526E-1,-6.33345E-1,-3.6545965E-1,-1.4863089E-1,5.9300687E-2,2.7924407E-1,6.4956576E-1,2.2237089E0],"categories":[],"categories_nodes":[],"categories_segments":[],"categories_sizes":[],"default_left":[0,0,0,0,0,0,0,0,0,0,0,0,0,0,0],"id":17,"left_children":[1,3,5,7,9,11,13,-1,-1,-1,-1,-1,-1,-1,-1],"loss_changes":[3.411856E6,6.2276975E5,6.028134E5,9.148975E4,7.2581625E4,1.7913575E5,2.4211088E5,0E0,0E0,0E0,0E0,0E0,0E0,0E0,0E0],"parents":[2147483647,0,0,1,1,2,2,3,3,4,4,5,5,6,6],"right_children":[2,4,6,8,10,12,14,-1,-1,-1,-1,-1,-1,-1,-1],"split_conditions":[5.1333332E1,2.8E1,5.7E1,8.25E0,2.6E1,5.1E1,1.22833336E2,-9.5160526E-1,-6.33345E-1,-3.6545965E-1,-1.4863089E-1,5.9300687E-2,2.7924407E-1,6.4956576E-1,2.2237089E0],"split_indices":[32,32,1,37,1,2,38,0,0,0,0,0,0,0,0],"split_type":[0,0,0,0,0,0,0,0,0,0,0,0,0,0,0],"sum_hessian":[7.272E4,2.7588E4,4.5132E4,1.1592E4,1.5996E4,3.8608E4,6.524E3,3.087E3,8.505E3,6.51E3,9.486E3,1.5404E4,2.3204E4,6.271E3,2.53E2],"tree_param":{"num_deleted":"0","num_feature":"45","num_nodes":"15","size_leaf_vector":"1"}},{"base_weights":[-1.8828806E-3,-8.621017E0,4.9487395E0,-1.4119117E1,-5.0204396E0,3.7884805E0,1.573479E1,-9.570155E-1,-6.392471E-1,-4.01199E-1,-1.6415839E-1,9.791656E-2,3.352348E-1,7.0236886E-1,2.1822116E0],"categories":[],"categories_nodes":[],"categories_segments":[],"categories_sizes":[],"default_left":[0,0,0,0,0,0,0,0,0,0,0,0,0,0,0],"id":18,"left_children":[1,3,5,7,9,11,13,-1,-1,-1,-1,-1,-1,-1,-1],"loss_changes":[3.1208898E6,5.2812725E5,5.812936E5,7.0363E4,8.4106875E4,2.238525E5,2.1154262E5,0E0,0E0,0E0,0E0,0E0,0E0,0E0,0E0],"parents":[2147483647,0,0,1,1,2,2,3,3,4,4,5,5,6,6],"right_children":[2,4,6,8,10,12,14,-1,-1,-1,-1,-1,-1,-1,-1],"split_conditions":[5.0333332E1,2.6333334E1,6.2E1,7E0,1.8E1,5.8E1,1.22833336E2,-9.570155E-1,-6.392471E-1,-4.01199E-1,-1.6415839E-1,9.791656E-2,3.352348E-1,7.0236886E-1,2.1822116E0],"split_indices":[32,38,1,2,0,2,38,0,0,0,0,0,0,0,0],"split_type":[0,0,0,0,0,0,0,0,0,0,0,0,0,0,0],"sum_hessian":[7.3137E4,2.6682E4,4.6455E4,1.0557E4,1.6125E4,4.1945E4,4.51E3,2.212E3,8.345E3,5.907E3,1.0218E4,2.5773E4,1.6172E4,4.255E3,2.55E2],"tree_param":{"num_deleted":"0","num_feature":"45","num_nodes":"15","size_leaf_vector":"1"}},{"base_weights":[1.572099E-2,-8.1312685E0,4.7345405E0,-1.3068748E1,-4.427959E0,3.2678704E0,1.2550723E1,-8.7404025E-1,-5.8189905E-1,-3.242309E-1,-1.3741319E-1,4.9163874E-2,2.4671368E-1,5.556917E-1,1.7977766E0],"categories":[],"categories_nodes":[],"categories_segments":[],"categories_sizes":[],"default_left":[0,0,0,0,0,0,0,0,0,0,0,0,0,0,0],"id":19,"left_children":[1,3,5,7,9,11,13,-1,-1,-1,-1,-1,-1,-1,-1],"loss_changes":[2.7981588E6,4.8803912E5,5.2829594E5,7.19115E4,5.2676844E4,1.4774194E5,2.4427338E5,0E0,0E0,0E0,0E0,0E0,0E0,0E0,0E0],"parents":[2147483647,0,0,1,1,2,2,3,3,4,4,5,5,6,6],"right_children":[2,4,6,8,10,12,14,-1,-1,-1,-1,-1,-1,-1,-1],"split_conditions":[3.8E1,2E1,7E1,8E0,2.6E1,5.0666668E1,9.4E1,-8.7404025E-1,-5.8189905E-1,-3.242309E-1,-1.3741319E-1,4.9163874E-2,2.4671368E-1,5.556917E-1,1.7977766E0],"split_indices":[2,2,23,2,30,34,2,0,0,0,0,0,0,0,0],"split_type":[0,0,0,0,0,0,0,0,0,0,0,0,0,0,0],"sum_hessian":[7.2782E4,2.6694E4,4.6088E4,1.1439E4,1.5255E4,3.8808E4,7.28E3,2.797E3,8.642E3,6.856E3,8.399E3,1.6369E4,2.2439E4,6.861E3,4.19E2],"tree_param":{"num_deleted":"0","num_feature":"45","num_nodes":"15","size_leaf_vector":"1"}},{"base_weights":[1.4170465E-2,-7.3342915E0,4.7404475E0,-1.2152388E1,-3.7780619E0,3.5676417E0,1.3484579E1,-7.893674E-1,-5.1897854E-1,-3.103092E-1,-1.2010988E-1,1.0658436E-1,3.0922255E-1,6.079435E-1,1.920289E0],"categories":[],"categories_nodes":[],"categories_segments":[],"categories_sizes":[],"default_left":[0,0,0,0,0,0,0,0,0,0,0,0,0,0,0],"id":20,"left_children":[1,3,5,7,9,11,13,-1,-1,-1,-1,-1,-1,-1,-1],"loss_changes":[2.533929E6,4.8924125E5,4.5527106E5,7.7896E4,5.4873938E4,1.4709962E5,1.7276212E5,0E0,0E0,0E0,0E0,0E0,0E0,0E0,0E0],"parents":[2147483647,0,0,1,1,2,2,3,3,4,4,5,5,6,6],"right_children":[2,4,6,8,10,12,14,-1,-1,-1,-1,-1,-1,-1,-1],"split_conditions":[5.1833332E1,1.9E1,7.3E1,9.916667E0,2.6E1,5.9E1,1.22833336E2,-7.893674E-1,-5.1897854E-1,-3.103092E-1,-1.2010988E-1,1.0658436E-1,3.0922255E-1,6.079435E-1,1.920289E0],"split_indices":[35,17,2,37,1,2,38,0,0,0,0,0,0,0,0],"split_type":[0,0,0,0,0,0,0,0,0,0,0,0,0,0,0],"sum_hessian":[7.2956E4,2.8556E4,4.44E4,1.2125E4,1.6431E4,3.9151E4,5.249E3,3.971E3,8.154E3,5.941E3,1.049E4,2.5281E4,1.387E4,4.986E3,2.63E2],"tree_param":{"num_deleted":"0","num_feature":"45","num_nodes":"15","size_leaf_vector":"1"}},{"base_weights":[3.039452E-3,-6.9106307E0,4.5453963E0,-1.2937829E1,-4.2703214E0,3.5095804E0,1.3556554E1,-9.431409E-1,-6.0307777E-1,-3.5810998E-1,-1.3478152E-1,1.051029E-1,2.920576E-1,6.097127E-1,1.996197E0],"categories":[],"categories_nodes":[],"categories_segments":[],"categories_sizes":[],"default_left":[0,0,0,0,0,0,0,0,0,0,0,0,0,0,0],"id":21,"left_children":[1,3,5,7,9,11,13,-1,-1,-1,-1,-1,-1,-1,-1],"loss_changes":[2.2930518E6,4.6063988E5,4.1122994E5,4.5440625E4,9.165884E4,1.2968994E5,1.6243244E5,0E0,0E0,0E0,0E0,0E0,0E0,0E0,0E0],"parents":[2147483647,0,0,1,1,2,2,3,3,4,4,5,5,6,6],"right_children":[2,4,6,8,10,12,14,-1,-1,-1,-1,-1,-1,-1,-1],"split_conditions":[3.4E1,1.5E1,7.9E1,4E0,2.325E1,5.9E1,8.2E1,-9.431409E-1,-6.0307777E-1,-3.5810998E-1,-1.3478152E-1,1.051029E-1,2.920576E-1,6.097127E-1,1.996197E0],"split_indices":[1,1,13,30,36,20,0,0,0,0,0,0,0,0,0],"split_type":[0,0,0,0,0,0,0,0,0,0,0,0,0,0,0],"sum_hessian":[7.3014E4,2.895E4,4.4064E4,8.817E3,2.0133E4,3.9523E4,4.541E3,1.132E3,7.685E3,7.096E3,1.3037E4,2.4647E4,1.4876E4,4.32E3,2.21E2],"tree_param":{"num_deleted":"0","num_feature":"45","num_nodes":"15","size_leaf_vector":"1"}},{"base_weights":[8.733325E-3,-8.0189295E0,3.5667536E0,-1.2324727E1,-5.2972302E0,1.9454801E0,9.22742E0,-9.446554E-1,-5.8135885E-1,-3.5788843E-1,-1.8512814E-1,-3.8180005E-2,1.7126963E-1,3.7568435E-1,9.6245193E-1],"categories":[],"categories_nodes":[],"categories_segments":[],"categories_sizes":[],"default_left":[0,0,0,0,0,0,0,0,0,0,0,0,0,0,0],"id":22,"left_children":[1,3,5,7,9,11,13,-1,-1,-1,-1,-1,-1,-1,-1],"loss_changes":[2.0812411E6,2.6214412E5,4.6332962E5,3.937075E4,4.0646312E4,1.5736331E5,1.9282894E5,0E0,0E0,0E0,0E0,0E0,0E0,0E0,0E0],"parents":[2147483647,0,0,1,1,2,2,3,3,4,4,5,5,6,6],"right_children":[2,4,6,8,10,12,14,-1,-1,-1,-1,-1,-1,-1,-1],"split_conditions":[4.6166668E1,1.4666667E1,6.5333336E1,3.1666667E0,3.4666668E1,3.8E1,7.2E1,-9.446554E-1,-5.8135885E-1,-3.5788843E-1,-1.8512814E-1,-3.8180005E-2,1.7126963E-1,3.7568435E-1,9.6245193E-1],"split_indices":[38,33,37,36,38,1,1,0,0,0,0,0,0,0,0],"split_type":[0,0,0,0,0,0,0,0,0,0,0,0,0,0,0],"sum_hessian":[7.2863E4,2.2376E4,5.0487E4,8.664E3,1.3712E4,3.9248E4,1.1239E4,8.28E2,7.836E3,6.326E3,7.386E3,1.3866E4,2.5382E4,9.6E3,1.639E3],"tree_param":{"num_deleted":"0","num_feature":"45","num_nodes":"15","size_leaf_vector":"1"}},{"base_weights":[2.03064E-2,-6.6288543E0,3.8817408E0,-1.1636908E1,-4.1761355E0,3.0127766E0,1.3015937E1,-8.151582E-1,-5.357232E-1,-3.282983E-1,-1.3984771E-1,6.763666E-2,2.5091204E-1,5.1751775E-1,1.2068537E0],"categories":[],"categories_nodes":[],"categories_segments":[],"categories_sizes":[],"default_left":[0,0,0,0,0,0,0,0,0,0,0,0,0,0,0],"id":23,"left_children":[1,3,5,7,9,11,13,-1,-1,-1,-1,-1,-1,-1,-1],"loss_changes":[1.8720884E6,3.289655E5,3.6605894E5,3.7637375E4,5.9245344E4,1.4021831E5,1.1839169E5,0E0,0E0,0E0,0E0,0E0,0E0,0E0,0E0],"parents":[2147483647,0,0,1,1,2,2,3,3,4,4,5,5,6,6],"right_children":[2,4,6,8,10,12,14,-1,-1,-1,-1,-1,-1,-1,-1],"split_conditions":[3.8E1,1.5E1,7.4833336E1,5E0,3.5333332E1,4.5E1,7.9E1,-8.151582E-1,-5.357232E-1,-3.282983E-1,-1.3984771E-1,6.763666E-2,2.5091204E-1,5.1751775E-1,1.2068537E0],"split_indices":[20,1,37,1,32,1,1,0,0,0,0,0,0,0,0],"split_type":[0,0,0,0,0,0,0,0,0,0,0,0,0,0,0],"sum_hessian":[7.2911E4,2.6786E4,4.6125E4,8.804E3,1.7982E4,4.212E4,4.005E3,1.449E3,7.355E3,6.578E3,1.1404E4,2.3046E4,1.9074E4,3.233E3,7.72E2],"tree_param":{"num_deleted":"0","num_feature":"45","num_nodes":"15","size_leaf_vector":"1"}},{"base_weights":[1.800327E-2,-5.939079E0,3.9403121E0,-9.770645E0,-2.8660116E0,3.0955386E0,1.3075864E1,-6.072629E-1,-3.845326E-1,-2.2322004E-1,-9.262087E-2,9.2792824E-2,2.6497665E-1,5.758943E-1,1.5664343E0],"categories":[],"categories_nodes":[],"categories_segments":[],"categories_sizes":[],"default_left":[0,0,0,0,0,0,0,0,0,0,0,0,0,0,0],"id":24,"left_children":[1,3,5,7,9,11,13,-1,-1,-1,-1,-1,-1,-1,-1],"loss_changes":[1.7080425E6,3.4168675E5,3.401122E5,6.3654875E4,2.6083016E4,1.1022953E5,1.055405E5,0E0,0E0,0E0,0E0,0E0,0E0,0E0,0E0],"parents":[2147483647,0,0,1,1,2,2,3,3,4,4,5,5,6,6],"right_children":[2,4,6,8,10,12,14,-1,-1,-1,-1,-1,-1,-1,-1],"split_conditions":[3.4E1,2E1,7.5333336E1,1.2E1,2.7E1,6E1,1.22833336E2,-6.072629E-1,-3.845326E-1,-2.2322004E-1,-9.262087E-2,9.2792824E-2,2.6497665E-1,5.758943E-1,1.5664343E0],"split_indices":[1,1,37,1,1,2,38,0,0,0,0,0,0,0,0],"split_type":[0,0,0,0,0,0,0,0,0,0,0,0,0,0,0],"sum_hessian":[7.3098E4,2.9021E4,4.4077E4,1.2915E4,1.6106E4,4.0348E4,3.729E3,6.027E3,6.888E3,6.248E3,9.858E3,2.5825E4,1.4523E4,3.438E3,2.91E2],"tree_param":{"num_deleted":"0","num_feature":"45","num_nodes":"15","size_leaf_vector":"1"}},{"base_weights":[6.5952563E-3,-5.8993382E0,3.5561106E0,-1.0100571E1,-3.4962115E0,2.7138748E0,1.1245157E1,-7.0312184E-1,-4.565985E-1,-2.5746557E-1,-1.02239154E-1,1.1175073E-2,1.8689238E-1,4.897696E-1,1.7214661E0],"categories":[],"categories_nodes":[],"categories_segments":[],"categories_sizes":[],"default_left":[0,0,0,0,0,0,0,0,0,0,0,0,0,0,0],"id":25,"left_children":[1,3,5,7,9,11,13,-1,-1,-1,-1,-1,-1,-1,-1],"loss_changes":[1.5315294E6,2.7683606E5,2.954685E5,3.8097312E4,4.184864E4,1.0488166E5,1.5089319E5,0E0,0E0,0E0,0E0,0E0,0E0,0E0,0E0],"parents":[2147483647,0,0,1,1,2,2,3,3,4,4,5,5,6,6],"right_children":[2,4,6,8,10,12,14,-1,-1,-1,-1,-1,-1,-1,-1],"split_conditions":[3.3E1,1.8E1,7.9E1,6E0,2.6E1,4.8E1,6.9E1,-7.0312184E-1,-4.565985E-1,-2.5746557E-1,-1.02239154E-1,1.1175073E-2,1.8689238E-1,4.897696E-1,1.7214661E0],"split_indices":[1,2,14,1,1,37,27,0,0,0,0,0,0,0,0],"split_type":[0,0,0,0,0,0,0,0,0,0,0,0,0,0,0],"sum_hessian":[7.3055E4,2.7424E4,4.5631E4,9.977E3,1.7447E4,4.1128E4,4.503E3,1.956E3,8.021E3,8.155E3,9.292E3,1.1984E4,2.9144E4,4.24E3,2.63E2],"tree_param":{"num_deleted":"0","num_feature":"45","num_nodes":"15","size_leaf_vector":"1"}},{"base_weights":[-5.712888E-3,-5.4200993E0,3.5419428E0,-8.895519E0,-2.6694057E0,2.3350322E0,8.292036E0,-5.432811E-1,-3.463508E-1,-2.2773945E-1,-9.453291E-2,2.6475716E-2,1.602329E-1,3.367551E-1,9.9709576E-1],"categories":[],"categories_nodes":[],"categories_segments":[],"categories_sizes":[],"default_left":[0,0,0,0,0,0,0,0,0,0,0,0,0,0,0],"id":26,"left_children":[1,3,5,7,9,11,13,-1,-1,-1,-1,-1,-1,-1,-1],"loss_changes":[1.3995034E6,2.756827E5,2.523195E5,4.9298812E4,2.3627273E4,5.511083E4,1.6154238E5,0E0,0E0,0E0,0E0,0E0,0E0,0E0,0E0],"parents":[2147483647,0,0,1,1,2,2,3,3,4,4,5,5,6,6],"right_children":[2,4,6,8,10,12,14,-1,-1,-1,-1,-1,-1,-1,-1],"split_conditions":[4E1,1.5E1,6.8E1,1E1,2.725E1,4.9E1,8.4E1,-5.432811E-1,-3.463508E-1,-2.2773945E-1,-9.453291E-2,2.6475716E-2,1.602329E-1,3.367551E-1,9.9709576E-1],"split_indices":[2,0,24,0,37,23,2,0,0,0,0,0,0,0,0],"split_type":[0,0,0,0,0,0,0,0,0,0,0,0,0,0,0],"sum_hessian":[7.2856E4,2.884E4,4.4016E4,1.274E4,1.61E4,3.51E4,8.916E3,6.364E3,6.376E3,4.704E3,1.1396E4,1.1411E4,2.3689E4,7.867E3,1.049E3],"tree_param":{"num_deleted":"0","num_feature":"45","num_nodes":"15","size_leaf_vector":"1"}},{"base_weights":[1.6723673E-3,-5.0161104E0,3.472705E0,-9.47994E0,-2.9879918E0,2.6558034E0,1.047718E1,-7.745539E-1,-4.4404298E-1,-2.617895E-1,-9.051842E-2,7.768265E-2,2.2309713E-1,4.619381E-1,1.4864783E0],"categories":[],"categories_nodes":[],"categories_segments":[],"categories_sizes":[],"default_left":[0,0,0,0,0,0,0,0,0,0,0,0,0,0,0],"id":27,"left_children":[1,3,5,7,9,11,13,-1,-1,-1,-1,-1,-1,-1,-1],"loss_changes":[1.2706315E6,2.7001712E5,2.4670816E5,3.33485E4,5.428553E4,7.687041E4,1.0695875E5,0E0,0E0,0E0,0E0,0E0,0E0,0E0,0E0],"parents":[2147483647,0,0,1,1,2,2,3,3,4,4,5,5,6,6],"right_children":[2,4,6,8,10,12,14,-1,-1,-1,-1,-1,-1,-1,-1],"split_conditions":[5.25E1,2.4E1,6.2E1,3.1666667E0,1.8E1,5.9E1,1.22833336E2,-7.745539E-1,-4.4404298E-1,-2.617895E-1,-9.051842E-2,7.768265E-2,2.2309713E-1,4.619381E-1,1.4864783E0],"split_indices":[38,13,1,36,0,2,38,0,0,0,0,0,0,0,0],"split_type":[0,0,0,0,0,0,0,0,0,0,0,0,0,0,0],"sum_hessian":[7.2951E4,2.9829E4,4.3122E4,9.317E3,2.0512E4,3.862E4,4.502E3,8.41E2,8.476E3,7.05E3,1.3462E4,2.3986E4,1.4634E4,4.232E3,2.7E2],"tree_param":{"num_deleted":"0","num_feature":"45","num_nodes":"15","size_leaf_vector":"1"}},{"base_weights":[1.3978343E-2,-5.154599E0,3.016151E0,-8.744807E0,-3.051246E0,1.76093E0,7.1776004E0,-7.319574E-1,-4.1030118E-1,-2.6068947E-1,-1.09990716E-1,-1.2981518E-2,1.3145678E-1,3.0405822E-1,8.9424753E-1],"categories":[],"categories_nodes":[],"categories_segments":[],"categories_sizes":[],"default_left":[0,0,0,0,0,0,0,0,0,0,0,0,0,0,0],"id":28,"left_children":[1,3,5,7,9,11,13,-1,-1,-1,-1,-1,-1,-1,-1],"loss_changes":[1.130845E6,2.021685E5,2.407879E5,3.1230688E4,3.1076281E4,6.2136312E4,1.2524619E5,0E0,0E0,0E0,0E0,0E0,0E0,0E0,0E0],"parents":[2147483647,0,0,1,1,2,2,3,3,4,4,5,5,6,6],"right_children":[2,4,6,8,10,12,14,-1,-1,-1,-1,-1,-1,-1,-1],"split_conditions":[5.0416668E1,1.8E1,6.6E1,3.1666667E0,2.2E1,4.7E1,7.5333336E1,-7.319574E-1,-4.1030118E-1,-2.6068947E-1,-1.09990716E-1,-1.2981518E-2,1.3145678E-1,3.0405822E-1,8.9424753E-1],"split_indices":[38,23,2,36,1,2,36,0,0,0,0,0,0,0,0],"split_type":[0,0,0,0,0,0,0,0,0,0,0,0,0,0,0],"sum_hessian":[7.2875E4,2.6776E4,4.6099E4,9.89E3,1.6886E4,3.5418E4,1.0681E4,8.25E2,9.065E3,4.768E3,1.2118E4,1.0645E4,2.4773E4,9.691E3,9.9E2],"tree_param":{"num_deleted":"0","num_feature":"45","num_nodes":"15","size_leaf_vector":"1"}},{"base_weights":[-2.453093E-2,-6.2989073E0,2.2415931E0,-9.117024E0,-4.4226103E0,9.0420353E-1,6.0791144E0,-6.935647E-1,-4.2625052E-1,-2.7741733E-1,-1.7249951E-1,-4.837345E-2,1.0480384E-1,2.620573E-1,8.00618E-1],"categories":[],"categories_nodes":[],"categories_segments":[],"categories_sizes":[],"default_left":[0,0,0,0,0,0,0,0,0,0,0,0,0,0,0],"id":29,"left_children":[1,3,5,7,9,11,13,-1,-1,-1,-1,-1,-1,-1,-1],"loss_changes":[1.03890456E6,1.02452E5,2.7548828E5,2.1626438E4,1.27168125E4,8.880781E4,1.15343125E5,0E0,0E0,0E0,0E0,0E0,0E0,0E0,0E0],"parents":[2147483647,0,0,1,1,2,2,3,3,4,4,5,5,6,6],"right_children":[2,4,6,8,10,12,14,-1,-1,-1,-1,-1,-1,-1,-1],"split_conditions":[4.1833332E1,1.1E1,6.3E1,4.9166665E0,3.1E1,4.5E1,9.1333336E1,-6.935647E-1,-4.2625052E-1,-2.7741733E-1,-1.7249951E-1,-4.837345E-2,1.0480384E-1,2.620573E-1,8.00618E-1],"split_indices":[35,0,2,38,13,2,38,0,0,0,0,0,0,0,0],"split_type":[0,0,0,0,0,0,0,0,0,0,0,0,0,0,0],"sum_hessian":[7.3064E4,1.9386E4,5.3678E4,7.746E3,1.164E4,3.9807E4,1.3871E4,8.54E2,6.892E3,5.392E3,6.248E3,1.5487E4,2.432E4,1.2794E4,1.077E3],"tree_param":{"num_deleted":"0","num_feature":"45","num_nodes":"15","size_leaf_vector":"1"}},{"base_weights":[3.925001E-3,-4.1670365E0,3.09425E0,-7.2238116E0,-2.00165E0,2.4256558E0,9.422852E0,-4.6463734E-1,-2.891837E-1,-4.1761932E-1,-8.975544E-2,7.3804975E-2,1.9321959E-1,4.08633E-1,1.6222051E0],"categories":[],"categories_nodes":[],"categories_segments":[],"categories_sizes":[],"default_left":[0,0,0,0,0,0,0,0,0,0,0,0,0,0,0],"id":30,"left_children":[1,3,5,7,9,11,13,-1,-1,-1,-1,-1,-1,-1,-1],"loss_changes":[9.39383E5,2.0527869E5,1.770959E5,3.8236375E4,2.3793516E4,5.171989E4,1.1470769E5,0E0,0E0,0E0,0E0,0E0,0E0,0E0,0E0],"parents":[2147483647,0,0,1,1,2,2,3,3,4,4,5,5,6,6],"right_children":[2,4,6,8,10,12,14,-1,-1,-1,-1,-1,-1,-1,-1],"split_conditions":[3.5E1,2E1,7.5E1,1.1E1,1.3E1,5.9E1,1.25E2,-4.6463734E-1,-2.891837E-1,-4.1761932E-1,-8.975544E-2,7.3804975E-2,1.9321959E-1,4.08633E-1,1.6222051E0],"split_indices":[1,1,24,1,29,24,17,0,0,0,0,0,0,0,0],"split_type":[0,0,0,0,0,0,0,0,0,0,0,0,0,0,0],"sum_hessian":[7.2876E4,3.1015E4,4.1861E4,1.2859E4,1.8156E4,3.7863E4,3.998E3,5.274E3,7.585E3,5.7E2,1.7586E4,2.2811E4,1.5052E4,3.794E3,2.04E2],"tree_param":{"num_deleted":"0","num_feature":"45","num_nodes":"15","size_leaf_vector":"1"}},{"base_weights":[1.1376741E-2,-4.8826E0,2.3906891E0,-8.155868E0,-3.2917173E0,1.5202359E0,6.8521094E0,-6.031086E-1,-3.7557384E-1,-2.2983193E-1,-1.0732456E-1,-1.2118001E-2,1.2419722E-1,2.7917054E-1,8.70724E-1],"categories":[],"categories_nodes":[],"categories_segments":[],"categories_sizes":[],"default_left":[0,0,0,0,0,0,0,0,0,0,0,0,0,0,0],"id":31,"left_children":[1,3,5,7,9,11,13,-1,-1,-1,-1,-1,-1,-1,-1],"loss_changes":[8.493932E5,1.2421981E5,1.9059338E5,1.9505031E4,2.3985828E4,6.976635E4,1.0722309E5,0E0,0E0,0E0,0E0,0E0,0E0,0E0,0E0],"parents":[2147483647,0,0,1,1,2,2,3,3,4,4,5,5,6,6],"right_children":[2,4,6,8,10,12,14,-1,-1,-1,-1,-1,-1,-1,-1],"split_conditions":[4.7666668E1,1.4E1,6.9E1,4.3333335E0,2.2583334E1,3.9E1,7.7E1,-6.031086E-1,-3.7557384E-1,-2.2983193E-1,-1.0732456E-1,-1.2118001E-2,1.2419722E-1,2.7917054E-1,8.70724E-1],"split_indices":[38,1,24,34,36,1,1,0,0,0,0,0,0,0,0],"split_type":[0,0,0,0,0,0,0,0,0,0,0,0,0,0,0],"sum_hessian":[7.2942E4,2.3861E4,4.9081E4,7.802E3,1.6059E4,4.107E4,8.011E3,1.101E3,6.701E3,7.504E3,8.555E3,1.4518E4,2.6552E4,7.154E3,8.57E2],"tree_param":{"num_deleted":"0","num_feature":"45","num_nodes":"15","size_leaf_vector":"1"}},{"base_weights":[1.0144669E-2,-5.023361E0,2.0947611E0,-7.4894056E0,-3.3168783E0,1.0726471E0,5.9275427E0,-6.035977E-1,-3.5054168E-1,-2.0581667E-1,-1.11945264E-1,-3.24421E-2,9.6938096E-2,2.4756522E-1,7.3830235E-1],"categories":[],"categories_nodes":[],"categories_segments":[],"categories_sizes":[],"default_left":[0,0,0,0,0,0,0,0,0,0,0,0,0,0,0],"id":32,"left_children":[1,3,5,7,9,11,13,-1,-1,-1,-1,-1,-1,-1,-1],"loss_changes":[7.640738E5,8.9705E4,2.017137E5,1.8995906E4,1.0849703E4,6.0616676E4,9.342547E4,0E0,0E0,0E0,0E0,0E0,0E0,0E0,0E0],"parents":[2147483647,0,0,1,1,2,2,3,3,4,4,5,5,6,6],"right_children":[2,4,6,8,10,12,14,-1,-1,-1,-1,-1,-1,-1,-1],"split_conditions":[4.45E1,2.3E1,6.6E1,3.5E0,2.325E1,4.5E1,9.1333336E1,-6.035977E-1,-3.5054168E-1,-2.0581667E-1,-1.11945264E-1,-3.24421E-2,9.6938096E-2,2.4756522E-1,7.3830235E-1],"split_indices":[38,13,2,37,36,31,38,0,0,0,0,0,0,0,0],"split_type":[0,0,0,0,0,0,0,0,0,0,0,0,0,0,0],"sum_hessian":[7.2815E4,2.1324E4,5.1491E4,8.719E3,1.2605E4,4.0652E4,1.0839E4,8.21E2,7.898E3,7.235E3,5.37E3,1.3607E4,2.7045E4,9.763E3,1.076E3],"tree_param":{"num_deleted":"0","num_feature":"45","num_nodes":"15","size_leaf_vector":"1"}},{"base_weights":[-3.9135977E-3,-3.7283542E0,2.562915E0,-7.003102E0,-2.2472913E0,1.9509423E0,7.820142E0,-4.329617E-1,-2.882212E-1,-1.9581753E-1,-6.8349406E-2,3.5478394E-2,1.4200298E-1,-3.7315914E-1,4.347038E-1],"categories":[],"categories_nodes":[],"categories_segments":[],"categories_sizes":[],"default_left":[0,0,0,0,0,0,0,0,0,0,0,0,0,0,0],"id":33,"left_children":[1,3,5,7,9,11,13,-1,-1,-1,-1,-1,-1,-1,-1],"loss_changes":[6.978706E5,1.4442862E5,1.3901244E5,1.8949531E4,3.012707E4,4.2723547E4,6.0275688E4,0E0,0E0,0E0,0E0,0E0,0E0,0E0,0E0],"parents":[2147483647,0,0,1,1,2,2,3,3,4,4,5,5,6,6],"right_children":[2,4,6,8,10,12,14,-1,-1,-1,-1,-1,-1,-1,-1],"split_conditions":[5.25E1,2.4E1,6.2E1,1E1,1.8E1,4.3E1,5E1,-4.329617E-1,-2.882212E-1,-1.9581753E-1,-6.8349406E-2,3.5478394E-2,1.4200298E-1,-3.7315914E-1,4.347038E-1],"split_indices":[38,13,15,23,0,1,19,0,0,0,0,0,0,0,0],"split_type":[0,0,0,0,0,0,0,0,0,0,0,0,0,0,0],"sum_hessian":[7.2996E4,2.9782E4,4.3214E4,9.273E3,2.0509E4,3.871E4,4.504E3,3.964E3,5.309E3,7.08E3,1.3429E4,1.6156E4,2.2554E4,2.43E2,4.261E3],"tree_param":{"num_deleted":"0","num_feature":"45","num_nodes":"15","size_leaf_vector":"1"}},{"base_weights":[1.9712333E-2,-4.416453E0,1.955394E0,-7.058626E0,-3.0017438E0,1.008181E0,5.2230277E0,-5.549452E-1,-3.283881E-1,-2.0762503E-1,-1.09490834E-1,-2.8020164E-2,8.689772E-2,2.1164992E-1,5.521718E-1],"categories":[],"categories_nodes":[],"categories_segments":[],"categories_sizes":[],"default_left":[0,0,0,0,0,0,0,0,0,0,0,0,0,0,0],"id":34,"left_children":[1,3,5,7,9,11,13,-1,-1,-1,-1,-1,-1,-1,-1],"loss_changes":[6.2614706E5,8.276744E4,1.5712116E5,1.5206344E4,1.3467664E4,4.5056844E4,6.566841E4,0E0,0E0,0E0,0E0,0E0,0E0,0E0,0E0],"parents":[2147483647,0,0,1,1,2,2,3,3,4,4,5,5,6,6],"right_children":[2,4,6,8,10,12,14,-1,-1,-1,-1,-1,-1,-1,-1],"split_conditions":[3.3E1,1.1E1,6.5083336E1,3.5E0,1.6E1,4.4666668E1,8.1E1,-5.549452E-1,-3.283881E-1,-2.0762503E-1,-1.09490834E-1,-2.8020164E-2,8.689772E-2,2.1164992E-1,5.521718E-1],"split_indices":[20,0,37,37,25,34,24,0,0,0,0,0,0,0,0],"split_type":[0,0,0,0,0,0,0,0,0,0,0,0,0,0,0],"sum_hessian":[7.2915E4,2.215E4,5.0765E4,7.722E3,1.4428E4,3.9358E4,1.1407E4,8.33E2,6.889E3,5.966E3,8.462E3,1.2497E4,2.6861E4,9.751E3,1.656E3],"tree_param":{"num_deleted":"0","num_feature":"45","num_nodes":"15","size_leaf_vector":"1"}},{"base_weights":[-1.9706099E-3,-4.532191E0,1.7161212E0,-6.696151E0,-3.1905675E0,7.093055E-1,4.5630784E0,-4.664738E-1,-3.0027446E-1,-1.5659909E-1,-8.3042306E-1,-3.4512263E-2,7.758691E-2,2.1207345E-1,1.0575337E0],"categories":[],"categories_nodes":[],"categories_segments":[],"categories_sizes":[],"default_left":[0,0,0,0,0,0,0,0,0,0,0,0,0,0,0],"id":35,"left_children":[1,3,5,7,9,11,13,-1,-1,-1,-1,-1,-1,-1,-1],"loss_changes":[5.679502E5,5.8218594E4,1.516409E5,1.3877781E4,9.65857E3,4.6084562E4,7.3596875E4,0E0,0E0,0E0,0E0,0E0,0E0,0E0,0E0],"parents":[2147483647,0,0,1,1,2,2,3,3,4,4,5,5,6,6],"right_children":[2,4,6,8,10,12,14,-1,-1,-1,-1,-1,-1,-1,-1],"split_conditions":[2.8E1,1.5E1,6.3E1,6E0,2.6E1,4.5E1,1.22833336E2,-4.664738E-1,-3.0027446E-1,-1.5659909E-1,-8.3042306E-1,-3.4512263E-2,7.758691E-2,2.1207345E-1,1.0575337E0],"split_indices":[15,20,2,2,0,2,38,0,0,0,0,0,0,0,0],"split_type":[0,0,0,0,0,0,0,0,0,0,0,0,0,0,0],"sum_hessian":[7.2967E4,2.0063E4,5.2904E4,7.676E3,1.2387E4,3.9084E4,1.382E4,1.591E3,6.085E3,1.2335E4,5.2E1,1.4686E4,2.4398E4,1.3559E4,2.61E2],"tree_param":{"num_deleted":"0","num_feature":"45","num_nodes":"15","size_leaf_vector":"1"}},{"base_weights":[1.1219796E-3,-3.2143192E0,2.223191E0,-5.6944227E0,-1.7095762E0,1.6624686E0,6.8305764E0,-3.769523E-1,-2.3512308E-1,-1.567771E-1,-5.3472437E-2,4.6687674E-2,1.4308654E-1,-4.5060706E-1,3.810708E-1],"categories":[],"categories_nodes":[],"categories_segments":[],"categories_sizes":[],"default_left":[0,0,0,0,0,0,0,0,0,0,0,0,0,0,0],"id":36,"left_children":[1,3,5,7,9,11,13,-1,-1,-1,-1,-1,-1,-1,-1],"loss_changes":[5.2195866E5,1.113955E5,1.11586484E5,2.0571938E4,1.6956648E4,3.365421E4,5.882022E4,0E0,0E0,0E0,0E0,0E0,0E0,0E0,0E0],"parents":[2147483647,0,0,1,1,2,2,3,3,4,4,5,5,6,6],"right_children":[2,4,6,8,10,12,14,-1,-1,-1,-1,-1,-1,-1,-1],"split_conditions":[5.25E1,1.8E1,7.4E1,1E1,2.7E1,5.9E1,6.7E1,-3.769523E-1,-2.3512308E-1,-1.567771E-1,-5.3472437E-2,4.6687674E-2,1.4308654E-1,-4.5060706E-1,3.810708E-1],"split_indices":[38,18,2,23,2,2,14,0,0,0,0,0,0,0,0],"split_type":[0,0,0,0,0,0,0,0,0,0,0,0,0,0,0],"sum_hessian":[7.305E4,2.9852E4,4.3198E4,1.1271E4,1.8581E4,3.8513E4,4.685E3,3.938E3,7.333E3,5.755E3,1.2826E4,2.3958E4,1.4555E4,2.22E2,4.463E3],"tree_param":{"num_deleted":"0","num_feature":"45","num_nodes":"15","size_leaf_vector":"1"}},{"base_weights":[-5.2758195E-3,-2.9366736E0,2.150228E0,-5.847215E0,-1.7723715E0,1.7916489E0,8.909556E0,-4.8523426E-1,-2.7188537E-1,-1.4121076E-1,-4.2539895E-2,5.6578983E-2,1.5684211E-1,3.6860165E-1,1.1083788E0],"categories":[],"categories_nodes":[],"categories_segments":[],"categories_sizes":[],"default_left":[0,0,0,0,0,0,0,0,0,0,0,0,0,0,0],"id":37,"left_children":[1,3,5,7,9,11,13,-1,-1,-1,-1,-1,-1,-1,-1],"loss_changes":[4.6140606E5,1.0484009E5,1.0196778E5,1.38843125E4,2.1422086E4,3.5477805E4,4.2956875E4,0E0,0E0,0E0,0E0,0E0,0E0,0E0,0E0],"parents":[2147483647,0,0,1,1,2,2,3,3,4,4,5,5,6,6],"right_children":[2,4,6,8,10,12,14,-1,-1,-1,-1,-1,-1,-1,-1],"split_conditions":[4.2E1,1.5E1,7.9E1,3.1666667E0,2.7E1,6.2E1,1.21E2,-4.8523426E-1,-2.7188537E-1,-1.4121076E-1,-4.2539895E-2,5.6578983E-2,1.5684211E-1,3.6860165E-1,1.1083788E0],"split_indices":[2,1,23,36,1,23,1,0,0,0,0,0,0,0,0],"split_type":[0,0,0,0,0,0,0,0,0,0,0,0,0,0,0],"sum_hessian":[7.302E4,3.0941E4,4.2079E4,8.839E3,2.2102E4,3.9961E4,2.118E3,8.45E2,7.994E3,1.032E4,1.1782E4,2.6809E4,1.3152E4,1.9E3,2.18E2],"tree_param":{"num_deleted":"0","num_feature":"45","num_nodes":"15","size_leaf_vector":"1"}},{"base_weights":[-5.1926617E-3,-4.0336356E0,1.4321953E0,-6.135774E0,-2.997412E0,4.936471E-1,3.801585E0,-4.4328317E-1,-2.7961352E-1,-1.4552334E-1,-7.60823E-1,3.0768571E-2,-4.3054214E-1,1.744803E-1,1.1392995E0],"categories":[],"categories_nodes":[],"categories_segments":[],"categories_sizes":[],"default_left":[0,0,0,0,0,0,0,0,0,0,0,0,0,0,0],"id":38,"left_children":[1,3,5,7,9,11,13,-1,-1,-1,-1,-1,-1,-1,-1],"loss_changes":[4.2266147E5,4.1784812E4,1.1963092E5,9.325672E3,1.3594586E4,4.271364E4,9.027981E4,0E0,0E0,0E0,0E0,0E0,0E0,0E0,0E0],"parents":[2147483647,0,0,1,1,2,2,3,3,4,4,5,5,6,6],"right_children":[2,4,6,8,10,12,14,-1,-1,-1,-1,-1,-1,-1,-1],"split_conditions":[4.2E1,1E1,6.2E1,4E0,3.2E1,1.2E1,1.3333333E2,-4.4328317E-1,-2.7961352E-1,-1.4552334E-1,-7.60823E-1,3.0768571E-2,-4.3054214E-1,1.744803E-1,1.1392995E0],"split_indices":[10,0,24,1,1,40,32,0,0,0,0,0,0,0,0],"split_type":[0,0,0,0,0,0,0,0,0,0,0,0,0,0,0],"sum_hessian":[7.299E4,1.9194E4,5.3796E4,6.335E3,1.2859E4,3.8534E4,1.5262E4,1.048E3,5.287E3,1.277E4,8.9E1,3.8027E4,5.07E2,1.5017E4,2.45E2],"tree_param":{"num_deleted":"0","num_feature":"45","num_nodes":"15","size_leaf_vector":"1"}},{"base_weights":[2.2500955E-2,-2.733276E0,1.928803E0,-5.1942234E0,-1.5729136E0,1.5559794E0,7.420273E0,-4.2349488E-1,-2.3927009E-1,-1.4951159E-1,-5.003595E-2,3.22885E-2,1.2142765E-1,-3.590349E-1,4.356329E-1],"categories":[],"categories_nodes":[],"categories_segments":[],"categories_sizes":[],"default_left":[0,0,0,0,0,0,0,0,0,0,0,0,0,0,0],"id":39,"left_children":[1,3,5,7,9,11,13,-1,-1,-1,-1,-1,-1,-1,-1],"loss_changes":[3.8287934E5,8.508791E4,8.818469E4,1.2724906E4,1.6421148E4,3.203993E4,5.1769688E4,0E0,0E0,0E0,0E0,0E0,0E0,0E0,0E0],"parents":[2147483647,0,0,1,1,2,2,3,3,4,4,5,5,6,6],"right_children":[2,4,6,8,10,12,14,-1,-1,-1,-1,-1,-1,-1,-1],"split_conditions":[5.25E1,1.6E1,8.4E1,6E0,3.5E1,5.6E1,6.9E1,-4.2349488E-1,-2.3927009E-1,-1.4951159E-1,-5.003595E-2,3.22885E-2,1.2142765E-1,-3.590349E-1,4.356329E-1],"split_indices":[38,19,10,14,10,20,14,0,0,0,0,0,0,0,0],"split_type":[0,0,0,0,0,0,0,0,0,0,0,0,0,0,0],"sum_hessian":[7.288E4,2.98E4,4.308E4,9.547E3,2.0253E4,4.0343E4,2.737E3,1.056E3,8.491E3,5.823E3,1.443E4,1.9747E4,2.0596E4,2.22E2,2.515E3],"tree_param":{"num_deleted":"0","num_feature":"45","num_nodes":"15","size_leaf_vector":"1"}},{"base_weights":[3.2422555E-4,-2.5380206E0,1.88205E0,-4.821512E0,-1.4585567E0,1.4544433E0,6.569755E0,-3.5143656E-1,-2.142047E-1,-1.3713585E-1,-4.4634666E-2,-7.290861E-1,7.524241E-2,2.682869E-1,1.1327888E0],"categories":[],"categories_nodes":[],"categories_segments":[],"categories_sizes":[],"default_left":[0,0,0,0,0,0,0,0,0,0,0,0,0,0,0],"id":40,"left_children":[1,3,5,7,9,11,13,-1,-1,-1,-1,-1,-1,-1,-1],"loss_changes":[3.486344E5,7.658339E4,8.4006234E4,1.178425E4,1.5329559E4,3.1082031E4,6.767006E4,0E0,0E0,0E0,0E0,0E0,0E0,0E0,0E0],"parents":[2147483647,0,0,1,1,2,2,3,3,4,4,5,5,6,6],"right_children":[2,4,6,8,10,12,14,-1,-1,-1,-1,-1,-1,-1,-1],"split_conditions":[4.2E1,1.8E1,7.6E1,5.6666665E0,1.8E1,2.4E1,1.21E2,-3.5143656E-1,-2.142047E-1,-1.3713585E-1,-4.4634666E-2,-7.290861E-1,7.524241E-2,2.682869E-1,1.1327888E0],"split_indices":[2,23,24,30,0,24,12,0,0,0,0,0,0,0,0],"split_type":[0,0,0,0,0,0,0,0,0,0,0,0,0,0,0],"sum_hessian":[7.2987E4,3.1072E4,4.1915E4,9.972E3,2.11E4,3.8413E4,3.502E3,1.949E3,8.023E3,6.452E3,1.4648E4,1.19E2,3.8294E4,3.26E3,2.42E2],"tree_param":{"num_deleted":"0","num_feature":"45","num_nodes":"15","size_leaf_vector":"1"}},{"base_weights":[1.124815E-3,-2.515611E0,1.7099134E0,-5.008429E0,-1.6125054E0,1.3906803E0,7.5744853E0,-3.8283417E-1,-2.3074885E-1,-7.5646125E-2,-5.121965E-1,3.7499674E-2,1.3004713E-1,-3.4025383E-1,4.510676E-1],"categories":[],"categories_nodes":[],"categories_segments":[],"categories_sizes":[],"default_left":[0,0,0,0,0,0,0,0,0,0,0,0,0,0,0],"id":41,"left_children":[1,3,5,7,9,11,13,-1,-1,-1,-1,-1,-1,-1,-1],"loss_changes":[3.1468116E5,6.660366E4,8.1575086E4,8.144422E3,1.8647883E4,3.2046695E4,4.689383E4,0E0,0E0,0E0,0E0,0E0,0E0,0E0,0E0],"parents":[2147483647,0,0,1,1,2,2,3,3,4,4,5,5,6,6],"right_children":[2,4,6,8,10,12,14,-1,-1,-1,-1,-1,-1,-1,-1],"split_conditions":[5.2333332E1,1.4E1,8.6E1,4E0,1E1,6.1E1,5.1E1,-3.8283417E-1,-2.3074885E-1,-7.5646125E-2,-5.121965E-1,3.7499674E-2,1.3004713E-1,-3.4025383E-1,4.510676E-1],"split_indices":[35,1,10,1,39,20,19,0,0,0,0,0,0,0,0],"split_type":[0,0,0,0,0,0,0,0,0,0,0,0,0,0,0],"sum_hessian":[7.3169E4,2.9589E4,4.358E4,7.867E3,2.1722E4,4.1332E4,2.248E3,1.014E3,6.853E3,2.1476E4,2.46E2,2.7027E4,1.4305E4,2.05E2,2.043E3],"tree_param":{"num_deleted":"0","num_feature":"45","num_nodes":"15","size_leaf_vector":"1"}},{"base_weights":[-9.176546E-3,-2.3364785E0,1.70953E0,-3.9330835E0,-1.0645028E0,1.4630648E0,8.255961E0,-2.9546973E-1,-1.689833E-1,-6.733933E-1,-5.0208546E-2,4.2167913E-2,1.2558351E-1,3.2391086E-1,1.1599338E0],"categories":[],"categories_nodes":[],"categories_segments":[],"categories_sizes":[],"default_left":[0,0,0,0,0,0,0,0,0,0,0,0,0,0,0],"id":42,"left_children":[1,3,5,7,9,11,13,-1,-1,-1,-1,-1,-1,-1,-1],"loss_changes":[2.922483E5,6.302347E4,6.778927E4,1.5020406E4,1.29066E4,2.631679E4,4.026892E4,0E0,0E0,0E0,0E0,0E0,0E0,0E0,0E0],"parents":[2147483647,0,0,1,1,2,2,3,3,4,4,5,5,6,6],"right_children":[2,4,6,8,10,12,14,-1,-1,-1,-1,-1,-1,-1,-1],"split_conditions":[4.2E1,1.6E1,8.2E1,8E0,1.3E1,6.1E1,1.33E2,-2.9546973E-1,-1.689833E-1,-6.733933E-1,-5.0208546E-2,4.2167913E-2,1.2558351E-1,3.2391086E-1,1.1599338E0],"split_indices":[2,0,23,31,23,21,1,0,0,0,0,0,0,0,0],"split_type":[0,0,0,0,0,0,0,0,0,0,0,0,0,0,0],"sum_hessian":[7.306E4,3.1035E4,4.2025E4,1.376E4,1.7275E4,4.0502E4,1.523E3,3.007E3,1.0753E4,8.2E1,1.7193E4,2.5459E4,1.5043E4,1.363E3,1.6E2],"tree_param":{"num_deleted":"0","num_feature":"45","num_nodes":"15","size_leaf_vector":"1"}},{"base_weights":[-3.2675322E-2,-2.0409856E0,1.783237E0,-3.948169E0,-9.9497247E-1,1.455872E0,6.440671E0,-2.9765785E-1,-1.6724184E-1,-2.3065697E-1,-4.0223394E-2,-3.581731E-1,7.6237634E-2,-5.992178E-1,3.5929474E-1],"categories":[],"categories_nodes":[],"categories_segments":[],"categories_sizes":[],"default_left":[0,0,0,0,0,0,0,0,0,0,0,0,0,0,0],"id":43,"left_children":[1,3,5,7,9,11,13,-1,-1,-1,-1,-1,-1,-1,-1],"loss_changes":[2.664692E5,6.9209016E4,5.8489438E4,1.4834281E4,1.5439564E4,2.130221E4,3.472335E4,0E0,0E0,0E0,0E0,0E0,0E0,0E0,0E0],"parents":[2147483647,0,0,1,1,2,2,3,3,4,4,5,5,6,6],"right_children":[2,4,6,8,10,12,14,-1,-1,-1,-1,-1,-1,-1,-1],"split_conditions":[4.5E1,2.0833334E1,7.8E1,1.1E1,-6E0,3.8E1,5.9E1,-2.9765785E-1,-1.6724184E-1,-2.3065697E-1,-4.0223394E-2,-3.581731E-1,7.6237634E-2,-5.992178E-1,3.5929474E-1],"split_indices":[20,37,23,14,40,23,24,0,0,0,0,0,0,0,0],"split_type":[0,0,0,0,0,0,0,0,0,0,0,0,0,0,0],"sum_hessian":[7.3064E4,3.4694E4,3.837E4,1.2287E4,2.2407E4,3.5852E4,2.518E3,2.839E3,9.448E3,1.119E3,2.1288E4,2.83E2,3.5569E4,9.7E1,2.421E3],"tree_param":{"num_deleted":"0","num_feature":"45","num_nodes":"15","size_leaf_vector":"1"}},{"base_weights":[-1.4995223E-2,-2.9786186E0,1.0490402E0,-4.483904E0,-2.2367878E0,5.9459096E-1,3.994316E0,-3.562808E-1,-2.0454192E-1,-1.0680225E-1,-4.4725782E-1,-1.2528186E-2,6.725424E-2,1.8003947E-1,7.3132503E-1],"categories":[],"categories_nodes":[],"categories_segments":[],"categories_sizes":[],"default_left":[0,0,0,0,0,0,0,0,0,0,0,0,0,0,0],"id":44,"left_children":[1,3,5,7,9,11,13,-1,-1,-1,-1,-1,-1,-1,-1],"loss_changes":[2.2996188E5,2.1497422E4,7.181806E4,6.5576016E3,8.6940625E3,2.9487498E4,2.9929258E4,0E0,0E0,0E0,0E0,0E0,0E0,0E0,0E0],"parents":[2147483647,0,0,1,1,2,2,3,3,4,4,5,5,6,6],"right_children":[2,4,6,8,10,12,14,-1,-1,-1,-1,-1,-1,-1,-1],"split_conditions":[4.2E1,1E1,5.6E1,3.5E0,1E1,2.8E1,1.22833336E2,-3.562808E-1,-2.0454192E-1,-1.0680225E-1,-4.4725782E-1,-1.2528186E-2,6.725424E-2,1.8003947E-1,7.3132503E-1],"split_indices":[11,26,15,37,39,0,38,0,0,0,0,0,0,0,0],"split_type":[0,0,0,0,0,0,0,0,0,0,0,0,0,0,0],"sum_hessian":[7.2922E4,1.9264E4,5.3658E4,6.357E3,1.2907E4,4.6487E4,7.171E3,8.2E2,5.537E3,1.2718E4,1.89E2,2.1865E4,2.4622E4,6.917E3,2.54E2],"tree_param":{"num_deleted":"0","num_feature":"45","num_nodes":"15","size_leaf_vector":"1"}},{"base_weights":[1.052615E-2,-2.433721E0,1.1997107E0,-3.9879086E0,-1.5431193E0,1.0202768E0,8.752797E0,-3.3465338E-1,-1.8565197E-1,-7.204833E-2,-4.0909368E-1,2.5209693E-2,1.2148817E-1,4.8340327E-1,-1.1404734E0],"categories":[],"categories_nodes":[],"categories_segments":[],"categories_sizes":[],"default_left":[0,0,0,0,0,0,0,0,0,0,0,0,0,0,0],"id":45,"left_children":[1,3,5,7,9,11,13,-1,-1,-1,-1,-1,-1,-1,-1],"loss_changes":[2.1184314E5,3.3007344E4,6.643294E4,6.4221406E3,1.026677E4,3.4835453E4,3.3189508E4,0E0,0E0,0E0,0E0,0E0,0E0,0E0,0E0],"parents":[2147483647,0,0,1,1,2,2,3,3,4,4,5,5,6,6],"right_children":[2,4,6,8,10,12,14,-1,-1,-1,-1,-1,-1,-1,-1],"split_conditions":[3.5E1,2.3E1,9.1333336E1,3.5E0,3.5E1,6.3E1,2.55E2,-3.3465338E-1,-1.8565197E-1,-7.204833E-2,-4.0909368E-1,2.5209693E-2,1.2148817E-1,4.8340327E-1,-1.1404734E0],"split_indices":[2,10,38,37,17,20,19,0,0,0,0,0,0,0,0],"split_type":[0,0,0,0,0,0,0,0,0,0,0,0,0,0,0],"sum_hessian":[7.2879E4,2.3852E4,4.9027E4,8.687E3,1.5165E4,4.7891E4,1.136E3,7.98E2,7.889E3,1.4937E4,2.28E2,3.5057E4,1.2834E4,1.105E3,3.1E1],"tree_param":{"num_deleted":"0","num_feature":"45","num_nodes":"15","size_leaf_vector":"1"}},{"base_weights":[-1.0654473E-2,-1.9251637E0,1.4021256E0,-3.9842818E0,-1.2263677E0,1.159062E0,6.3988824E0,-2.800956E-1,-1.785131E-1,-3.584667E-1,-5.7175756E-2,-5.470612E-1,5.9915897E-2,-4.4794533E-1,4.102837E-1],"categories":[],"categories_nodes":[],"categories_segments":[],"categories_sizes":[],"default_left":[0,0,0,0,0,0,0,0,0,0,0,0,0,0,0],"id":46,"left_children":[1,3,5,7,9,11,13,-1,-1,-1,-1,-1,-1,-1,-1],"loss_changes":[1.9718394E5,4.4532688E4,5.09346E4,5.221453E3,1.136773E4,1.9020668E4,5.4094555E4,0E0,0E0,0E0,0E0,0E0,0E0,0E0,0E0],"parents":[2147483647,0,0,1,1,2,2,3,3,4,4,5,5,6,6],"right_children":[2,4,6,8,10,12,14,-1,-1,-1,-1,-1,-1,-1,-1],"split_conditions":[3.5E1,1.4E1,7.1E1,6E0,1.1E1,2.9E1,6.9E1,-2.800956E-1,-1.785131E-1,-3.584667E-1,-5.7175756E-2,-5.470612E-1,5.9915897E-2,-4.4794533E-1,4.102837E-1],"split_indices":[1,1,15,2,4,17,14,0,0,0,0,0,0,0,0],"split_type":[0,0,0,0,0,0,0,0,0,0,0,0,0,0,0],"sum_hessian":[7.2899E4,3.0953E4,4.1946E4,7.841E3,2.3112E4,4.0002E4,1.944E3,1.594E3,6.247E3,3.16E2,2.2796E4,1.28E2,3.9874E4,2.04E2,1.74E3],"tree_param":{"num_deleted":"0","num_feature":"45","num_nodes":"15","size_leaf_vector":"1"}},{"base_weights":[1.0243266E-2,-2.6174572E0,9.410394E-1,-3.768318E0,-1.824763E0,4.0632656E-1,3.0697043E0,-2.2249208E-1,-1.4178865E-1,-8.630792E-2,-5.521516E-1,-4.7162595E-1,2.3710262E-2,1.4087577E-1,1.5393397E0],"categories":[],"categories_nodes":[],"categories_segments":[],"categories_sizes":[],"default_left":[0,0,0,0,0,0,0,0,0,0,0,0,0,0,0],"id":47,"left_children":[1,3,5,7,9,11,13,-1,-1,-1,-1,-1,-1,-1,-1],"loss_changes":[1.7868656E5,1.7422352E4,6.1402145E4,4.932875E3,1.0258227E4,2.8802396E4,7.5571055E4,0E0,0E0,0E0,0E0,0E0,0E0,0E0,0E0],"parents":[2147483647,0,0,1,1,2,2,3,3,4,4,5,5,6,6],"right_children":[2,4,6,8,10,12,14,-1,-1,-1,-1,-1,-1,-1,-1],"split_conditions":[2.7E1,1.1E1,6.6E1,0E0,3.0666666E1,2E1,1.54E2,-2.2249208E-1,-1.4178865E-1,-8.630792E-2,-5.521516E-1,-4.7162595E-1,2.3710262E-2,1.4087577E-1,1.5393397E0],"split_indices":[1,0,24,7,30,19,17,0,0,0,0,0,0,0,0],"split_type":[0,0,0,0,0,0,0,0,0,0,0,0,0,0,0],"sum_hessian":[7.3054E4,1.9108E4,5.3946E4,7.791E3,1.1317E4,4.3117E4,1.0829E4,4.498E3,3.293E3,1.1199E4,1.18E2,2.94E2,4.2823E4,1.0733E4,9.6E1],"tree_param":{"num_deleted":"0","num_feature":"45","num_nodes":"15","size_leaf_vector":"1"}},{"base_weights":[-1.239704E-2,-1.6037202E0,1.4252248E0,-3.4387774E0,-9.345203E-1,1.1934047E0,6.4181805E0,-2.8482938E-1,-1.5750183E-1,-1.7316988E-1,-3.6579594E-2,1.6037509E-2,8.808689E-2,-3.4599912E-1,3.774762E-1],"categories":[],"categories_nodes":[],"categories_segments":[],"categories_sizes":[],"default_left":[0,0,0,0,0,0,0,0,0,0,0,0,0,0,0],"id":48,"left_children":[1,3,5,7,9,11,13,-1,-1,-1,-1,-1,-1,-1,-1],"loss_changes":[1.6663075E5,4.2448016E4,4.4279992E4,5.9943203E3,1.2996963E4,1.813639E4,2.5693766E4,0E0,0E0,0E0,0E0,0E0,0E0,0E0,0E0],"parents":[2147483647,0,0,1,1,2,2,3,3,4,4,5,5,6,6],"right_children":[2,4,6,8,10,12,14,-1,-1,-1,-1,-1,-1,-1,-1],"split_conditions":[4.5E1,2.4E1,8.1E1,6E0,-3E0,1.3052619E-1,6.8E1,-2.8482938E-1,-1.5750183E-1,-1.7316988E-1,-3.6579594E-2,1.6037509E-2,8.808689E-2,-3.4599912E-1,3.774762E-1],"split_indices":[2,14,23,14,42,6,14,0,0,0,0,0,0,0,0],"split_type":[0,0,0,0,0,0,0,0,0,0,0,0,0,0,0],"sum_hessian":[7.2834E4,3.4569E4,3.8265E4,9.236E3,2.5333E4,3.6569E4,1.696E3,1.044E3,8.192E3,1.88E3,2.3453E4,1.4424E4,2.2145E4,1.32E2,1.564E3],"tree_param":{"num_deleted":"0","num_feature":"45","num_nodes":"15","size_leaf_vector":"1"}},{"base_weights":[1.6741414E-2,-1.4820435E0,1.3716121E0,-3.2556088E0,-8.415764E-1,1.1936817E0,7.1110625E0,-1.5710144E-1,-5.11259E-1,-8.3612785E-2,-1.7332492E-2,6.2004633E-2,-4.265774E-1,-6.807069E-1,4.2363667E-1],"categories":[],"categories_nodes":[],"categories_segments":[],"categories_sizes":[],"default_left":[0,0,0,0,0,0,0,0,0,0,0,0,0,0,0],"id":49,"left_children":[1,3,5,7,9,11,13,-1,-1,-1,-1,-1,-1,-1,-1],"loss_changes":[1.4797417E5,3.9295133E4,3.9071156E4,7.216211E3,1.0449936E4,1.6771074E4,3.264066E4,0E0,0E0,0E0,0E0,0E0,0E0,0E0,0E0],"parents":[2147483647,0,0,1,1,2,2,3,3,4,4,5,5,6,6],"right_children":[2,4,6,8,10,12,14,-1,-1,-1,-1,-1,-1,-1,-1],"split_conditions":[4.4666668E1,2.4E1,9.1333336E1,1.1E1,3.7E1,2.3E1,6.8E1,-1.5710144E-1,-5.11259E-1,-8.3612785E-2,-1.7332492E-2,6.2004633E-2,-4.265774E-1,-6.807069E-1,4.2363667E-1],"split_indices":[34,14,38,44,4,42,14,0,0,0,0,0,0,0,0],"split_type":[0,0,0,0,0,0,0,0,0,0,0,0,0,0,0],"sum_hessian":[7.2867E4,3.4596E4,3.8271E4,9.177E3,2.5419E4,3.7122E4,1.149E3,9.032E3,1.45E2,9.489E3,1.593E4,3.6947E4,1.75E2,7E1,1.079E3],"tree_param":{"num_deleted":"0","num_feature":"45","num_nodes":"15","size_leaf_vector":"1"}},{"base_weights":[-7.219872E-3,-1.6141499E0,1.1767015E0,-3.4277928E0,-1.0925378E0,8.1112796E-1,3.3653502E0,-1.6604817E-1,-5.746228E-1,-1.628791E-1,-4.4971835E-2,-4.9717164E-1,4.2546786E-2,-3.3179942E-1,1.9212021E-1],"categories":[],"categories_nodes":[],"categories_segments":[],"categories_sizes":[],"default_left":[0,0,0,0,0,0,0,0,0,0,0,0,0,0,0],"id":50,"left_children":[1,3,5,7,9,11,13,-1,-1,-1,-1,-1,-1,-1,-1],"loss_changes":[1.3842248E5,2.9193266E4,3.351498E4,5.880328E3,1.0017846E4,1.5380881E4,2.8643562E4,0E0,0E0,0E0,0E0,0E0,0E0,0E0,0E0],"parents":[2147483647,0,0,1,1,2,2,3,3,4,4,5,5,6,6],"right_children":[2,4,6,8,10,12,14,-1,-1,-1,-1,-1,-1,-1,-1],"split_conditions":[4.2E1,2E1,7.2E1,1.5E1,-3E0,2.7E1,5E1,-1.6604817E-1,-5.746228E-1,-1.628791E-1,-4.4971835E-2,-4.9717164E-1,4.2546786E-2,-3.3179942E-1,1.9212021E-1],"split_indices":[2,13,21,40,42,18,19,0,0,0,0,0,0,0,0],"split_type":[0,0,0,0,0,0,0,0,0,0,0,0,0,0,0],"sum_hessian":[7.2756E4,3.0864E4,4.1892E4,6.892E3,2.3972E4,3.5898E4,5.994E3,6.804E3,8.8E1,1.961E3,2.2011E4,1.31E2,3.5767E4,2.72E2,5.722E3],"tree_param":{"num_deleted":"0","num_feature":"45","num_nodes":"15","size_leaf_vector":"1"}},{"base_weights":[2.7313996E-2,-2.118279E0,8.03063E-1,-2.0025902E0,-8.779478E0,3.399926E-1,2.636898E0,-1.5971743E-1,-6.8965755E-2,-4.0970945E-1,-1.6127862E0,-1.4887917E-1,2.2286294E-2,1.1787672E-1,7.06371E-1],"categories":[],"categories_nodes":[],"categories_segments":[],"categories_sizes":[],"default_left":[0,0,0,0,0,0,0,0,0,0,0,0,0,0,0],"id":51,"left_children":[1,3,5,7,9,11,13,-1,-1,-1,-1,-1,-1,-1,-1],"loss_changes":[1.2115129E5,1.4867578E4,4.5395883E4,1.4106375E4,4.126949E3,1.4974172E4,3.454454E4,0E0,0E0,0E0,0E0,0E0,0E0,0E0,0E0],"parents":[2147483647,0,0,1,1,2,2,3,3,4,4,5,5,6,6],"right_children":[2,4,6,8,10,12,14,-1,-1,-1,-1,-1,-1,-1,-1],"split_conditions":[3E1,1.1E1,6.6E1,1.4E1,1.02E2,-4E0,8.4E1,-1.5971743E-1,-6.8965755E-2,-4.0970945E-1,-1.6127862E0,-1.4887917E-1,2.2286294E-2,1.1787672E-1,7.06371E-1],"split_indices":[24,44,20,2,0,42,0,0,0,0,0,0,0,0,0],"split_type":[0,0,0,0,0,0,0,0,0,0,0,0,0,0,0],"sum_hessian":[7.2785E4,1.9327E4,5.3458E4,1.8999E4,3.28E2,4.2682E4,1.0776E4,6.522E3,1.2477E4,3.22E2,6E0,1.317E3,4.1365E4,1.0522E4,2.54E2],"tree_param":{"num_deleted":"0","num_feature":"45","num_nodes":"15","size_leaf_vector":"1"}},{"base_weights":[1.1103698E-2,-1.2200872E0,1.2905077E0,-2.4892976E0,-5.48514E-1,1.0924603E0,5.3174367E0,-2.0990673E-1,-1.09084E-1,-5.4082286E-1,-2.4810633E-2,-3.5931557E-1,5.7564355E-2,-7.535605E-1,2.9845473E-1],"categories":[],"categories_nodes":[],"categories_segments":[],"categories_sizes":[],"default_left":[0,0,0,0,0,0,0,0,0,0,0,0,0,0,0],"id":52,"left_children":[1,3,5,7,9,11,13,-1,-1,-1,-1,-1,-1,-1,-1],"loss_changes":[1.1525039E5,3.1778598E4,2.8606152E4,6.7675312E3,1.3086496E4,1.666789E4,2.2475137E4,0E0,0E0,0E0,0E0,0E0,0E0,0E0,0E0],"parents":[2147483647,0,0,1,1,2,2,3,3,4,4,5,5,6,6],"right_children":[2,4,6,8,10,12,14,-1,-1,-1,-1,-1,-1,-1,-1],"split_conditions":[4.7E1,2E1,8.1E1,6E0,1.1E1,3.8E1,4.4E1,-2.0990673E-1,-1.09084E-1,-5.4082286E-1,-2.4810633E-2,-3.5931557E-1,5.7564355E-2,-7.535605E-1,2.9845473E-1],"split_indices":[2,1,23,1,4,23,19,0,0,0,0,0,0,0,0],"split_type":[0,0,0,0,0,0,0,0,0,0,0,0,0,0,0],"sum_hessian":[7.3163E4,3.7284E4,3.5879E4,1.29E4,2.4384E4,3.4199E4,1.68E3,1.965E3,1.0935E4,1.22E2,2.4262E4,2.4E2,3.3959E4,5.1E1,1.629E3],"tree_param":{"num_deleted":"0","num_feature":"45","num_nodes":"15","size_leaf_vector":"1"}},{"base_weights":[-5.7508736E-3,-1.9876838E0,7.025133E-1,-3.5278842E0,-1.646194E0,4.8799747E-1,3.7759945E0,-2.5480503E-1,-1.5288882E-1,-7.8650855E-2,-5.0296503E-1,-4.121339E-1,2.747013E-2,1.6408436E-1,1.164511E0],"categories":[],"categories_nodes":[],"categories_segments":[],"categories_sizes":[],"default_left":[0,0,0,0,0,0,0,0,0,0,0,0,0,0,0],"id":53,"left_children":[1,3,5,7,9,11,13,-1,-1,-1,-1,-1,-1,-1,-1],"loss_changes":[1.02559586E5,1.010793E4,3.548517E4,2.548379E3,9.669949E3,2.6981121E4,3.375472E4,0E0,0E0,0E0,0E0,0E0,0E0,0E0,0E0],"parents":[2147483647,0,0,1,1,2,2,3,3,4,4,5,5,6,6],"right_children":[2,4,6,8,10,12,14,-1,-1,-1,-1,-1,-1,-1,-1],"split_conditions":[2.7E1,9E0,7.6E1,5E0,3.6333332E1,1.6E1,1.03E2,-2.5480503E-1,-1.5288882E-1,-7.8650855E-2,-5.0296503E-1,-4.121339E-1,2.747013E-2,1.6408436E-1,1.164511E0],"split_indices":[1,24,24,14,34,29,25,0,0,0,0,0,0,0,0],"split_type":[0,0,0,0,0,0,0,0,0,0,0,0,0,0,0],"sum_hessian":[7.3059E4,1.9234E4,5.3825E4,3.488E3,1.5746E4,5.0315E4,3.51E3,8.01E2,2.687E3,1.5612E4,1.34E2,3.5E2,4.9965E4,3.425E3,8.5E1],"tree_param":{"num_deleted":"0","num_feature":"45","num_nodes":"15","size_leaf_vector":"1"}},{"base_weights":[-5.392438E-3,-1.8996857E0,6.751083E-1,-3.3647263E0,-1.5671047E0,9.762058E-2,1.7133646E0,-1.6368082E-1,-7.664698E-1,-3.3362827E-1,-7.393905E-2,7.5198384E-3,-3.0868638E-1,7.944974E-2,5.068068E-1],"categories":[],"categories_nodes":[],"categories_segments":[],"categories_sizes":[],"default_left":[0,0,0,0,0,0,0,0,0,0,0,0,0,0,0],"id":54,"left_children":[1,3,5,7,9,11,13,-1,-1,-1,-1,-1,-1,-1,-1],"loss_changes":[9.3926766E4,9.374711E3,3.2140967E4,3.8052695E3,7.06291E3,1.1402479E4,2.0044973E4,0E0,0E0,0E0,0E0,0E0,0E0,0E0,0E0],"parents":[2147483647,0,0,1,1,2,2,3,3,4,4,5,5,6,6],"right_children":[2,4,6,8,10,12,14,-1,-1,-1,-1,-1,-1,-1,-1],"split_conditions":[4.2E1,9E0,5.9E1,1.5E1,-8E0,9E0,1.22833336E2,-1.6368082E-1,-7.664698E-1,-3.3362827E-1,-7.393905E-2,7.5198384E-3,-3.0868638E-1,7.944974E-2,5.068068E-1],"split_indices":[10,22,20,0,39,42,38,0,0,0,0,0,0,0,0],"split_type":[0,0,0,0,0,0,0,0,0,0,0,0,0,0,0],"sum_hessian":[7.2861E4,1.9256E4,5.3605E4,3.56E3,1.5696E4,3.4447E4,1.9158E4,3.535E3,2.5E1,2.65E2,1.5431E4,3.4161E4,2.86E2,1.8881E4,2.77E2],"tree_param":{"num_deleted":"0","num_feature":"45","num_nodes":"15","size_leaf_vector":"1"}},{"base_weights":[-8.137484E-3,-1.0736675E0,1.1066569E0,-2.1452076E0,-4.5238638E-1,8.037604E-1,3.1843276E0,-6.963741E-2,-1.5090345E-1,-7.5894547E-1,-2.0976558E-2,-4.1350803E-1,4.224446E-2,-4.975749E-1,1.8000305E-1],"categories":[],"categories_nodes":[],"categories_segments":[],"categories_sizes":[],"default_left":[0,0,0,0,0,0,0,0,0,0,0,0,0,0,0],"id":55,"left_children":[1,3,5,7,9,11,13,-1,-1,-1,-1,-1,-1,-1,-1],"loss_changes":[8.6633234E4,2.4823598E4,2.242627E4,8.981781E3,1.14107295E4,1.1619797E4,2.4816012E4,0E0,0E0,0E0,0E0,0E0,0E0,0E0,0E0],"parents":[2147483647,0,0,1,1,2,2,3,3,4,4,5,5,6,6],"right_children":[2,4,6,8,10,12,14,-1,-1,-1,-1,-1,-1,-1,-1],"split_conditions":[4.7E1,1.6E1,6.2E1,-1.90809E-1,1.2E1,1.4E1,5.7E1,-6.963741E-2,-1.5090345E-1,-7.5894547E-1,-2.0976558E-2,-4.1350803E-1,4.224446E-2,-4.975749E-1,1.8000305E-1],"split_indices":[2,0,16,5,17,4,24,0,0,0,0,0,0,0,0],"split_type":[0,0,0,0,0,0,0,0,0,0,0,0,0,0,0],"sum_hessian":[7.293E4,3.7289E4,3.5641E4,1.3684E4,2.3605E4,3.1108E4,4.533E3,7.351E3,6.333E3,5.1E1,2.3554E4,1.39E2,3.0969E4,1.38E2,4.395E3],"tree_param":{"num_deleted":"0","num_feature":"45","num_nodes":"15","size_leaf_vector":"1"}},{"base_weights":[1.5205478E-2,-1.0545897E0,9.8943996E-1,-2.2724595E0,-6.1041176E-1,7.199031E-1,2.9218638E0,-1.10180415E-1,-5.427271E-1,-1.9485839E-1,-2.5032708E-2,4.24058E-2,-9.536087E-2,-3.5089028E-1,1.6973227E-1],"categories":[],"categories_nodes":[],"categories_segments":[],"categories_sizes":[],"default_left":[0,0,0,0,0,0,0,0,0,0,0,0,0,0,0],"id":56,"left_children":[1,3,5,7,9,11,13,-1,-1,-1,-1,-1,-1,-1,-1],"loss_changes":[7.597346E4,1.879216E4,1.986805E4,5.4489062E3,9.181418E3,1.1280586E4,2.1978719E4,0E0,0E0,0E0,0E0,0E0,0E0,0E0,0E0],"parents":[2147483647,0,0,1,1,2,2,3,3,4,4,5,5,6,6],"right_children":[2,4,6,8,10,12,14,-1,-1,-1,-1,-1,-1,-1,-1],"split_conditions":[4.4666668E1,2.4E1,7.4E1,1.8E1,-5E0,3.2E1,3.2E1,-1.10180415E-1,-5.427271E-1,-1.9485839E-1,-2.5032708E-2,4.24058E-2,-9.536087E-2,-3.5089028E-1,1.6973227E-1],"split_indices":[34,11,20,0,39,3,29,0,0,0,0,0,0,0,0],"split_type":[0,0,0,0,0,0,0,0,0,0,0,0,0,0,0],"sum_hessian":[7.2892E4,3.4742E4,3.815E4,9.283E3,2.5459E4,3.3482E4,4.668E3,9.211E3,7.2E1,8.21E2,2.4638E4,3.1925E4,1.557E3,2.11E2,4.457E3],"tree_param":{"num_deleted":"0","num_feature":"45","num_nodes":"15","size_leaf_vector":"1"}},{"base_weights":[-5.711979E-3,-9.364713E-1,1.044114E0,-2.0751643E0,-4.5642072E-1,1.0275668E0,4.2910778E1,-9.903272E-2,-5.006117E-1,-1.03548065E-1,-1.3377813E-2,5.281831E-2,-9.658203E-1,-1.4017591E0,5.264396E0],"categories":[],"categories_nodes":[],"categories_segments":[],"categories_sizes":[],"default_left":[0,0,0,0,0,0,0,0,0,0,0,0,0,0,0],"id":57,"left_children":[1,3,5,7,9,11,13,-1,-1,-1,-1,-1,-1,-1,-1],"loss_changes":[7.1255625E4,2.1127496E4,2.3670574E4,8.567434E3,8.290727E3,2.010004E4,6.417836E4,0E0,0E0,0E0,0E0,0E0,0E0,0E0,0E0],"parents":[2147483647,0,0,1,1,2,2,3,3,4,4,5,5,6,6],"right_children":[2,4,6,8,10,12,14,-1,-1,-1,-1,-1,-1,-1,-1],"split_conditions":[4.8E1,1.4E1,2.38E2,4.1E1,-4E0,6.8E1,8.2658976E-1,-9.903272E-2,-5.006117E-1,-1.03548065E-1,-1.3377813E-2,5.281831E-2,-9.658203E-1,-1.4017591E0,5.264396E0],"split_indices":[2,28,12,10,44,39,6,0,0,0,0,0,0,0,0],"split_type":[0,0,0,0,0,0,0,0,0,0,0,0,0,0,0],"sum_hessian":[7.292E4,3.8652E4,3.4268E4,1.1461E4,2.7191E4,3.4256E4,1.2E1,1.1328E4,1.33E2,2.846E3,2.4345E4,3.4209E4,4.7E1,6E0,6E0],"tree_param":{"num_deleted":"0","num_feature":"45","num_nodes":"15","size_leaf_vector":"1"}},{"base_weights":[-1.8431183E-2,-1.5975729E0,5.5424106E-1,-1.5807984E0,-1.7825502E0,8.339573E-2,1.6099882E0,-7.490545E-2,-3.3330837E-1,-2.744576E-1,7.342666E-3,7.878375E-2,1.901117E0],"categories":[],"categories_nodes":[],"categories_segments":[],"categories_sizes":[],"default_left":[0,0,0,0,0,0,0,0,0,0,0,0,0],"id":58,"left_children":[1,3,5,7,-1,9,11,-1,-1,-1,-1,-1,-1],"loss_changes":[6.6065945E4,1.1017867E4,2.6650064E4,8.156543E3,0E0,1.3112389E4,2.0566062E4,0E0,0E0,0E0,0E0,0E0,0E0],"parents":[2147483647,0,0,1,1,2,2,3,3,5,5,6,6],"right_children":[2,4,6,8,-1,10,12,-1,-1,-1,-1,-1,-1],"split_conditions":[3E1,8.45E1,6.1E1,1.1E1,-1.7825502E0,1.4E1,2.38E2,-7.490545E-2,-3.3330837E-1,-2.744576E-1,7.342666E-3,7.878375E-2,1.901117E0],"split_indices":[24,34,2,44,0,4,12,0,0,0,0,0,0],"split_type":[0,0,0,0,0,0,0,0,0,0,0,0,0],"sum_hessian":[7.3052E4,1.9441E4,5.3611E4,1.9433E4,8E0,3.7077E4,1.6534E4,1.9124E4,3.09E2,4.16E2,3.6661E4,1.652E4,1.4E1],"tree_param":{"num_deleted":"0","num_feature":"45","num_nodes":"13","size_leaf_vector":"1"}},{"base_weights":[7.4006864E-3,-8.167875E-1,1.0171176E0,-2.0845494E0,-4.5841166E-1,8.441561E-1,5.833492E0,-1.3571115E-1,-6.585394E-2,-3.2561022E-1,-2.0338625E-2,-3.225719E-1,4.5633756E-2,8.981841E-1,2.0258406E-1],"categories":[],"categories_nodes":[],"categories_segments":[],"categories_sizes":[],"default_left":[0,0,0,0,0,0,0,0,0,0,0,0,0,0,0],"id":59,"left_children":[1,3,5,7,9,11,13,-1,-1,-1,-1,-1,-1,-1,-1],"loss_changes":[6.0881867E4,1.8298713E4,2.738129E4,4.2838555E3,9.812783E3,1.587493E4,2.4517445E4,0E0,0E0,0E0,0E0,0E0,0E0,0E0,0E0],"parents":[2147483647,0,0,1,1,2,2,3,3,4,4,5,5,6,6],"right_children":[2,4,6,8,10,12,14,-1,-1,-1,-1,-1,-1,-1,-1],"split_conditions":[4.9E1,1.5E1,9.1333336E1,0E0,-9E0,4.2E1,8E0,-1.3571115E-1,-6.585394E-2,-3.2561022E-1,-2.0338625E-2,-3.225719E-1,4.5633756E-2,8.981841E-1,2.0258406E-1],"split_indices":[2,15,38,7,39,23,3,0,0,0,0,0,0,0,0],"split_type":[0,0,0,0,0,0,0,0,0,0,0,0,0,0,0],"sum_hessian":[7.3155E4,4.0278E4,3.2877E4,8.875E3,3.1403E4,3.1739E4,1.138E3,4.873E3,4.002E3,2.64E2,3.1139E4,2.94E2,3.1445E4,1.44E2,9.94E2],"tree_param":{"num_deleted":"0","num_feature":"45","num_nodes":"15","size_leaf_vector":"1"}},{"base_weights":[-8.797627E-3,-1.4283715E0,5.219847E-1,-6.436739E0,-1.352727E0,5.8944345E-1,-6.050736E0,-2.723804E-1,-7.8877455E-1,-1.13822E-1,-4.8166443E-2,2.5767637E-2,5.090625E-1,-2.618334E-1,-1.3156112E0],"categories":[],"categories_nodes":[],"categories_segments":[],"categories_sizes":[],"default_left":[0,0,0,0,0,0,0,0,0,0,0,0,0,0,0],"id":60,"left_children":[1,3,5,7,9,11,13,-1,-1,-1,-1,-1,-1,-1,-1],"loss_changes":[5.5064742E4,7.5210234E3,2.3589258E4,2.5985752E3,7.044375E3,3.7409305E4,8.705297E3,0E0,0E0,0E0,0E0,0E0,0E0,0E0,0E0],"parents":[2147483647,0,0,1,1,2,2,3,3,4,4,5,5,6,6],"right_children":[2,4,6,8,10,12,14,-1,-1,-1,-1,-1,-1,-1,-1],"split_conditions":[4.3E1,-8E0,1.4E1,3.9666668E1,1.2666667E1,9.4E1,2.91E2,-2.723804E-1,-7.8877455E-1,-1.13822E-1,-4.8166443E-2,2.5767637E-2,5.090625E-1,-2.618334E-1,-1.3156112E0],"split_indices":[10,39,40,31,31,20,15,0,0,0,0,0,0,0,0],"split_type":[0,0,0,0,0,0,0,0,0,0,0,0,0,0,0],"sum_hessian":[7.3077E4,1.9887E4,5.319E4,2.94E2,1.9593E4,5.2651E4,5.39E2,2.68E2,2.6E1,5.808E3,1.3785E4,5.2249E4,4.02E2,5.2E2,1.9E1],"tree_param":{"num_deleted":"0","num_feature":"45","num_nodes":"15","size_leaf_vector":"1"}},{"base_weights":[-7.835471E-4,-8.170401E-1,8.4902483E-1,-1.8295075E0,-4.599956E-1,7.178934E-1,4.7926583E0,-8.644536E-2,-4.3050274E-1,1.5495185E-4,-5.7536907E-2,3.751506E-2,-5.441815E-1,1.6793022E-1,9.1215706E-1],"categories":[],"categories_nodes":[],"categories_segments":[],"categories_sizes":[],"default_left":[0,0,0,0,0,0,0,0,0,0,0,0,0,0,0],"id":61,"left_children":[1,3,5,7,9,11,13,-1,-1,-1,-1,-1,-1,-1,-1],"loss_changes":[5.0629668E4,1.3456818E4,1.848675E4,6.597E3,8.804953E3,1.3024074E4,2.2097604E4,0E0,0E0,0E0,0E0,0E0,0E0,0E0,0E0],"parents":[2147483647,0,0,1,1,2,2,3,3,4,4,5,5,6,6],"right_children":[2,4,6,8,10,12,14,-1,-1,-1,-1,-1,-1,-1,-1],"split_conditions":[4.7E1,2.5E1,9.1333336E1,2E1,1.9E1,4.2E1,8.8901716E-1,-8.644536E-2,-4.3050274E-1,1.5495185E-4,-5.7536907E-2,3.751506E-2,-5.441815E-1,1.6793022E-1,9.1215706E-1],"split_indices":[2,14,38,0,3,40,6,0,0,0,0,0,0,0,0],"split_type":[0,0,0,0,0,0,0,0,0,0,0,0,0,0,0],"sum_hessian":[7.2986E4,3.7228E4,3.5758E4,9.704E3,2.7524E4,3.4609E4,1.149E3,9.564E3,1.4E2,1.6478E4,1.1046E4,3.4514E4,9.5E1,1.04E3,1.09E2],"tree_param":{"num_deleted":"0","num_feature":"45","num_nodes":"15","size_leaf_vector":"1"}},{"base_weights":[-8.328623E-3,-1.3356789E0,4.6191725E-1,-1.2565616E0,-6.546834E0,-8.109028E-2,1.1458288E0,-1.4176385E-1,-5.2207448E-2,6.635446E-1,-3.4503818E-1,-3.939051E-1,-5.833494E-4,5.281452E-2,5.6093264E-1],"categories":[],"categories_nodes":[],"categories_segments":[],"categories_sizes":[],"default_left":[0,0,0,0,0,0,0,0,0,0,0,0,0,0,0],"id":62,"left_children":[1,3,5,7,9,11,13,-1,-1,-1,-1,-1,-1,-1,-1],"loss_changes":[4.545044E4,7.8404414E3,1.9967834E4,6.2879805E3,2.1322373E3,1.6223014E4,2.1443158E4,0E0,0E0,0E0,0E0,0E0,0E0,0E0,0E0],"parents":[2147483647,0,0,1,1,2,2,3,3,4,4,5,5,6,6],"right_children":[2,4,6,8,10,12,14,-1,-1,-1,-1,-1,-1,-1,-1],"split_conditions":[2.7E1,2.95E1,3.9073113E-1,7E0,5E0,1.5E1,8.4E1,-1.4176385E-1,-5.2207448E-2,6.635446E-1,-3.4503818E-1,-3.939051E-1,-5.833494E-4,5.281452E-2,5.6093264E-1],"split_indices":[1,33,6,20,29,29,27,0,0,0,0,0,0,0,0],"split_type":[0,0,0,0,0,0,0,0,0,0,0,0,0,0,0],"sum_hessian":[7.2813E4,1.9047E4,5.3766E4,1.8764E4,2.83E2,2.9971E4,2.3795E4,2.223E3,1.6541E4,4E0,2.79E2,2.63E2,2.9708E4,2.3587E4,2.08E2],"tree_param":{"num_deleted":"0","num_feature":"45","num_nodes":"15","size_leaf_vector":"1"}},{"base_weights":[8.485408E-3,-6.663823E-1,8.956776E-1,-1.4000452E0,-2.0491798E-1,7.206753E-1,4.2304945E0,-1.406159E-1,-5.8783956E-2,-2.4496856E-1,-6.890636E-3,3.7057094E-2,-8.794751E-1,-3.5807034E-1,2.916654E-1],"categories":[],"categories_nodes":[],"categories_segments":[],"categories_sizes":[],"default_left":[0,0,0,0,0,0,0,0,0,0,0,0,0,0,0],"id":63,"left_children":[1,3,5,7,9,11,13,-1,-1,-1,-1,-1,-1,-1,-1],"loss_changes":[4.368809E4,1.403015E4,1.8392654E4,5.0649746E3,8.013443E3,1.1243197E4,2.8756703E4,0E0,0E0,0E0,0E0,0E0,0E0,0E0,0E0],"parents":[2147483647,0,0,1,1,2,2,3,3,4,4,5,5,6,6],"right_children":[2,4,6,8,10,12,14,-1,-1,-1,-1,-1,-1,-1,-1],"split_conditions":[5E1,2.6E1,8.2E1,7E0,3E1,1.6E2,7E1,-1.406159E-1,-5.8783956E-2,-2.4496856E-1,-6.890636E-3,3.7057094E-2,-8.794751E-1,-3.5807034E-1,2.916654E-1],"split_indices":[2,2,20,2,13,13,14,0,0,0,0,0,0,0,0],"split_type":[0,0,0,0,0,0,0,0,0,0,0,0,0,0,0],"sum_hessian":[7.2964E4,4.1441E4,3.1523E4,1.6E4,2.5441E4,2.9953E4,1.57E3,2.191E3,1.3809E4,3.57E2,2.5084E4,2.9921E4,3.2E1,1.93E2,1.377E3],"tree_param":{"num_deleted":"0","num_feature":"45","num_nodes":"15","size_leaf_vector":"1"}},{"base_weights":[-6.1156154E-3,-6.470805E-1,8.3715814E-1,-1.7335681E0,-3.931778E-1,6.702049E-1,3.8482876E0,-6.11081E-2,-1.2819423E-1,-9.639939E-2,-1.1047782E-2,3.727046E-2,-2.3136787E-1,-8.781991E-1,2.2169332E-1],"categories":[],"categories_nodes":[],"categories_segments":[],"categories_sizes":[],"default_left":[0,0,0,0,0,0,0,0,0,0,0,0,0,0,0],"id":64,"left_children":[1,3,5,7,9,11,13,-1,-1,-1,-1,-1,-1,-1,-1],"loss_changes":[3.9570637E4,1.1473111E4,1.5889359E4,3.3403574E3,8.911636E3,1.1939438E4,2.0935795E4,0E0,0E0,0E0,0E0,0E0,0E0,0E0,0E0],"parents":[2147483647,0,0,1,1,2,2,3,3,4,4,5,5,6,6],"right_children":[2,4,6,8,10,12,14,-1,-1,-1,-1,-1,-1,-1,-1],"split_conditions":[5E1,1.4E1,8.1E1,1.8652403E-1,2E1,1.1E1,4.4E1,-6.11081E-2,-1.2819423E-1,-9.639939E-2,-1.1047782E-2,3.727046E-2,-2.3136787E-1,-8.781991E-1,2.2169332E-1],"split_indices":[2,1,23,5,4,44,19,0,0,0,0,0,0,0,0],"split_type":[0,0,0,0,0,0,0,0,0,0,0,0,0,0,0],"sum_hessian":[7.3207E4,4.1593E4,3.1614E4,7.877E3,3.3716E4,2.9955E4,1.659E3,4.877E3,3E3,3.4E3,3.0316E4,2.9537E4,4.18E2,4.3E1,1.616E3],"tree_param":{"num_deleted":"0","num_feature":"45","num_nodes":"15","size_leaf_vector":"1"}},{"base_weights":[5.359324E-3,-5.1176506E-1,9.736805E-1,-4.6958286E-1,-1.0734299E1,8.820277E-1,1.0442889E1,-7.8274E-2,-8.874357E-3,-4.0644202E-1,-1.3443171E0,-3.6699048E-4,6.780844E-2,7.198842E-1,-8.940324E-1],"categories":[],"categories_nodes":[],"categories_segments":[],"categories_sizes":[],"default_left":[0,0,0,0,0,0,0,0,0,0,0,0,0,0,0],"id":65,"left_children":[1,3,5,7,9,11,13,-1,-1,-1,-1,-1,-1,-1,-1],"loss_changes":[3.6558746E4,2.0513633E4,2.2043506E4,1.5171992E4,7.8959824E3,1.0615877E4,2.7661164E4,0E0,0E0,0E0,0E0,0E0,0E0,0E0,0E0],"parents":[2147483647,0,0,1,1,2,2,3,3,4,4,5,5,6,6],"right_children":[2,4,6,8,10,12,14,-1,-1,-1,-1,-1,-1,-1,-1],"split_conditions":[4.4E1,5.3333332E1,8.4E1,1.8E1,1.225E2,1.04528464E-1,6.234898E-1,-7.8274E-2,-8.874357E-3,-4.0644202E-1,-1.3443171E0,-3.6699048E-4,6.780844E-2,7.198842E-1,-8.940324E-1],"split_indices":[19,33,26,24,33,6,8,0,0,0,0,0,0,0,0],"split_type":[0,0,0,0,0,0,0,0,0,0,0,0,0,0,0],"sum_hessian":[7.3006E4,4.7591E4,2.5415E4,4.7397E4,1.94E2,2.5173E4,2.42E2,9.973E3,3.7424E4,1.69E2,2.5E1,8.754E3,1.6419E4,2.13E2,2.9E1],"tree_param":{"num_deleted":"0","num_feature":"45","num_nodes":"15","size_leaf_vector":"1"}},{"base_weights":[7.0616463E-3,-5.7808673E-1,7.599178E-1,-1.2968601E0,-2.1971752E-1,7.851086E-1,-1.9151287E1,-1.0102173E-1,-4.131921E-2,-1.1095648E-1,-4.7338638E-3,3.853302E-2,2.232155E0,-6.3332576E-1,-1.6074599E0],"categories":[],"categories_nodes":[],"categories_segments":[],"categories_sizes":[],"default_left":[0,0,0,0,0,0,0,0,0,0,0,0,0,0,0],"id":66,"left_children":[1,3,5,7,9,11,13,-1,-1,-1,-1,-1,-1,-1,-1],"loss_changes":[3.2243914E4,1.0607725E4,1.6076045E4,4.661535E3,6.870521E3,2.0202586E4,2.798375E3,0E0,0E0,0E0,0E0,0E0,0E0,0E0,0E0],"parents":[2147483647,0,0,1,1,2,2,3,3,4,4,5,5,6,6],"right_children":[2,4,6,8,10,12,14,-1,-1,-1,-1,-1,-1,-1,-1],"split_conditions":[2.8E1,1.6E1,2.55E2,-4.3388373E-1,-4E0,2.38E2,8.8E1,-1.0102173E-1,-4.131921E-2,-1.1095648E-1,-4.7338638E-3,3.853302E-2,2.232155E0,-6.3332576E-1,-1.6074599E0],"split_indices":[0,0,19,7,40,12,1,0,0,0,0,0,0,0,0],"split_type":[0,0,0,0,0,0,0,0,0,0,0,0,0,0,0],"sum_hessian":[7.319E4,4.1182E4,3.2008E4,1.37E4,2.7482E4,3.1969E4,3.9E1,5.396E3,8.304E3,1.616E3,2.5866E4,3.196E4,9E0,2.8E1,1.1E1],"tree_param":{"num_deleted":"0","num_feature":"45","num_nodes":"15","size_leaf_vector":"1"}},{"base_weights":[-6.8894015E-3,-4.526129E-1,8.697717E-1,-4.1091385E-1,-6.0817857E0,-1.3767675E-1,1.3770721E0,-6.457585E-2,-6.707284E-3,-2.7208605E-1,-7.593759E-1,-2.7091785E-3,-8.9557964E-1,6.438646E-2,6.698342E-1],"categories":[],"categories_nodes":[],"categories_segments":[],"categories_sizes":[],"default_left":[0,0,0,0,0,0,0,0,0,0,0,0,0,0,0],"id":67,"left_children":[1,3,5,7,9,11,13,-1,-1,-1,-1,-1,-1,-1,-1],"loss_changes":[2.8506236E4,1.1348019E4,1.2567586E4,1.1700615E4,1.9459131E3,1.2219719E4,1.7535234E4,0E0,0E0,0E0,0E0,0E0,0E0,0E0,0E0],"parents":[2147483647,0,0,1,1,2,2,3,3,4,4,5,5,6,6],"right_children":[2,4,6,8,10,12,14,-1,-1,-1,-1,-1,-1,-1,-1],"split_conditions":[6.1916668E1,1.5E1,9.584575E-2,2E1,5.7E1,1.55E2,1.6E2,-6.457585E-2,-6.707284E-3,-2.7208605E-1,-7.593759E-1,-2.7091785E-3,-8.9557964E-1,6.438646E-2,6.698342E-1],"split_indices":[38,40,6,20,14,18,17,0,0,0,0,0,0,0,0],"split_type":[0,0,0,0,0,0,0,0,0,0,0,0,0,0,0],"sum_hessian":[7.295E4,4.8362E4,2.4588E4,4.8008E4,3.54E2,8.235E3,1.6353E4,1.1479E4,3.6529E4,3.33E2,2.1E1,8.198E3,3.7E1,1.6234E4,1.19E2],"tree_param":{"num_deleted":"0","num_feature":"45","num_nodes":"15","size_leaf_vector":"1"}},{"base_weights":[7.5204326E-3,-4.222954E-1,9.234247E-1,-1.5778905E0,-2.538294E-1,3.2990568E0,6.6242164E-1,-8.803877E-2,4.5334537E-2,-8.4239915E-2,-5.2763647E-3,1.5267701E-1,3.8999765E0,3.5115983E-2,-1.4912643E0],"categories":[],"categories_nodes":[],"categories_segments":[],"categories_sizes":[],"default_left":[0,0,0,0,0,0,0,0,0,0,0,0,0,0,0],"id":68,"left_children":[1,3,5,7,9,11,13,-1,-1,-1,-1,-1,-1,-1,-1],"loss_changes":[2.8748594E4,9.675225E3,1.4458617E4,2.875831E3,9.205577E3,4.1973008E4,2.5594148E4,0E0,0E0,0E0,0E0,0E0,0E0,0E0,0E0],"parents":[2147483647,0,0,1,1,2,2,3,3,4,4,5,5,6,6],"right_children":[2,4,6,8,10,12,14,-1,-1,-1,-1,-1,-1,-1,-1],"split_conditions":[5.6E1,1.9E1,8E0,3E0,2E1,2.38E2,2.45E2,-8.803877E-2,4.5334537E-2,-8.4239915E-2,-5.2763647E-3,1.5267701E-1,3.8999765E0,3.5115983E-2,-1.4912643E0],"split_indices":[20,10,3,9,4,12,18,0,0,0,0,0,0,0,0],"split_type":[0,0,0,0,0,0,0,0,0,0,0,0,0,0,0],"sum_hessian":[7.3024E4,4.9701E4,2.3323E4,6.322E3,4.3379E4,2.307E3,2.1016E4,5.889E3,4.33E2,4.072E3,3.9307E4,2.301E3,6E0,2.099E4,2.6E1],"tree_param":{"num_deleted":"0","num_feature":"45","num_nodes":"15","size_leaf_vector":"1"}},{"base_weights":[-1.9182673E-2,-4.4892207E-1,7.546458E-1,-4.0578476E-1,-6.0154357E0,-4.715928E0,8.5046047E-1,-5.2607317E-2,-3.4179948E-3,-2.7179673E-1,-6.503933E-1,4.817073E-1,-3.1761855E-1,3.911913E-2,6.214882E-1],"categories":[],"categories_nodes":[],"categories_segments":[],"categories_sizes":[],"default_left":[0,0,0,0,0,0,0,0,0,0,0,0,0,0,0],"id":69,"left_children":[1,3,5,7,9,11,13,-1,-1,-1,-1,-1,-1,-1,-1],"loss_changes":[2.425578E4,1.1256687E4,1.3656624E4,1.0149539E4,1.3528799E3,1.0623629E4,2.016169E4,0E0,0E0,0E0,0E0,0E0,0E0,0E0,0E0],"parents":[2147483647,0,0,1,1,2,2,3,3,4,4,5,5,6,6],"right_children":[2,4,6,8,10,12,14,-1,-1,-1,-1,-1,-1,-1,-1],"split_conditions":[5.4E1,1E1,-7E0,2.6E1,1.17537394E-1,8E0,8.9E1,-5.2607317E-2,-3.4179948E-3,-2.7179673E-1,-6.503933E-1,4.817073E-1,-3.1761855E-1,3.911913E-2,6.214882E-1],"split_indices":[21,39,41,20,6,3,26,0,0,0,0,0,0,0,0],"split_type":[0,0,0,0,0,0,0,0,0,0,0,0,0,0,0],"sum_hessian":[7.2937E4,4.6895E4,2.6042E4,4.6536E4,3.59E2,4.47E2,2.5595E4,1.596E4,3.0576E4,3.34E2,2.5E1,4.5E1,4.02E2,2.5447E4,1.48E2],"tree_param":{"num_deleted":"0","num_feature":"45","num_nodes":"15","size_leaf_vector":"1"}},{"base_weights":[1.9944892E-3,-3.7935653E-1,8.121008E-1,-1.0858663E0,-9.126458E-2,7.936466E-1,3.258638E1,-5.1108684E-2,-5.239476E-1,1.9079832E-3,-1.154295E-1,4.1088987E-2,-1.4869853E0,4.3244343E0,-7.1858996E-1],"categories":[],"categories_nodes":[],"categories_segments":[],"categories_sizes":[],"default_left":[0,0,0,0,0,0,0,0,0,0,0,0,0,0,0],"id":70,"left_children":[1,3,5,7,9,11,13,-1,-1,-1,-1,-1,-1,-1,-1],"loss_changes":[2.2515836E4,1.0086046E4,1.3636454E4,8.570055E3,1.0102619E4,2.0061793E4,3.604229E4,0E0,0E0,0E0,0E0,0E0,0E0,0E0,0E0],"parents":[2147483647,0,0,1,1,2,2,3,3,4,4,5,5,6,6],"right_children":[2,4,6,8,10,12,14,-1,-1,-1,-1,-1,-1,-1,-1],"split_conditions":[5.6E1,3.35E1,2.38E2,3.1E1,3.2E1,1.79E2,2.51E2,-5.1108684E-2,-5.239476E-1,1.9079832E-3,-1.154295E-1,4.1088987E-2,-1.4869853E0,4.3244343E0,-7.1858996E-1],"split_indices":[20,38,10,1,3,25,25,0,0,0,0,0,0,0,0],"split_type":[0,0,0,0,0,0,0,0,0,0,0,0,0,0,0],"sum_hessian":[7.2879E4,4.9553E4,2.3326E4,1.4352E4,3.5201E4,2.3314E4,1.2E1,1.4257E4,9.5E1,3.3261E4,1.94E3,2.3294E4,2E1,5E0,7E0],"tree_param":{"num_deleted":"0","num_feature":"45","num_nodes":"15","size_leaf_vector":"1"}},{"base_weights":[-2.8555049E-2,-5.8161587E-1,4.728632E-1,-4.7164507E0,-5.34166E-1,4.9382606E-1,-1.57289E1,-2.0901735E-1,-4.0764472E-1,-5.8654513E-2,-1.1761968E-2,2.417096E-2,2.3595476E0,-4.852665E-1,-1.3998108E0],"categories":[],"categories_nodes":[],"categories_segments":[],"categories_sizes":[],"default_left":[0,0,0,0,0,0,0,0,0,0,0,0,0,0,0],"id":71,"left_children":[1,3,5,7,9,11,13,-1,-1,-1,-1,-1,-1,-1,-1],"loss_changes":[2.0238162E4,6.8042393E3,1.3010167E4,6.7258496E2,6.552458E3,1.8538957E4,3.2463662E3,0E0,0E0,0E0,0E0,0E0,0E0,0E0,0E0],"parents":[2147483647,0,0,1,1,2,2,3,3,4,4,5,5,6,6],"right_children":[2,4,6,8,10,12,14,-1,-1,-1,-1,-1,-1,-1,-1],"split_conditions":[4.5E1,-8E0,1.36E2,4.5E1,-4.3388373E-1,2.38E2,6.1E1,-2.0901735E-1,-4.0764472E-1,-5.8654513E-2,-1.1761968E-2,2.417096E-2,2.3595476E0,-4.852665E-1,-1.3998108E0],"split_indices":[2,39,29,24,7,13,0,0,0,0,0,0,0,0,0],"split_type":[0,0,0,0,0,0,0,0,0,0,0,0,0,0,0],"sum_hessian":[7.2976E4,3.4701E4,3.8275E4,3.92E2,3.4309E4,3.8227E4,4.8E1,3.42E2,5E1,1.0934E4,2.3375E4,3.822E4,7E0,3.4E1,1.4E1],"tree_param":{"num_deleted":"0","num_feature":"45","num_nodes":"15","size_leaf_vector":"1"}},{"base_weights":[-3.929246E-3,-2.0871131E-1,1.332934E0,-1.7039995E-1,-4.6255093E0,1.5200034E0,-7.967447E0,-4.3715786E-2,3.7360985E-3,-5.199308E-1,-2.0558706E-1,6.7537576E-2,8.835497E-1,-3.0401537E-1,-1.4400373E0],"categories":[],"categories_nodes":[],"categories_segments":[],"categories_sizes":[],"default_left":[0,0,0,0,0,0,0,0,0,0,0,0,0,0,0],"id":72,"left_children":[1,3,5,7,9,11,13,-1,-1,-1,-1,-1,-1,-1,-1],"loss_changes":[1.9992451E4,1.0714207E4,1.6894611E4,1.0833341E4,1.5494209E3,2.596006E4,7.2627246E3,0E0,0E0,0E0,0E0,0E0,0E0,0E0,0E0],"parents":[2147483647,0,0,1,1,2,2,3,3,4,4,5,5,6,6],"right_children":[2,4,6,8,10,12,14,-1,-1,-1,-1,-1,-1,-1,-1],"split_conditions":[6.7E1,1.1E1,2.9E1,2.4E1,1.3E1,1.6E2,1.22833336E2,-4.3715786E-2,3.7360985E-3,-5.199308E-1,-2.0558706E-1,6.7537576E-2,8.835497E-1,-3.0401537E-1,-1.4400373E0],"split_indices":[20,44,40,15,14,1,38,0,0,0,0,0,0,0,0],"split_type":[0,0,0,0,0,0,0,0,0,0,0,0,0,0,0],"sum_hessian":[7.3025E4,6.3326E4,9.699E3,6.2783E4,5.43E2,9.509E3,1.9E2,1.6215E4,4.6568E4,4.2E1,5.01E2,9.412E3,9.7E1,1.76E2,1.4E1],"tree_param":{"num_deleted":"0","num_feature":"45","num_nodes":"15","size_leaf_vector":"1"}},{"base_weights":[6.0462723E-3,-2.372101E-1,1.0354135E0,-2.1109162E-1,-1.3753018E1,9.2517585E-1,1.64782E1,-3.947444E-2,4.2845393E-3,-5.0773734E-1,-1.6988639E0,4.8196834E-2,-1.0042908E0,2.3568938E0,4.1300398E-1],"categories":[],"categories_nodes":[],"categories_segments":[],"categories_sizes":[],"default_left":[0,0,0,0,0,0,0,0,0,0,0,0,0,0,0],"id":73,"left_children":[1,3,5,7,9,11,13,-1,-1,-1,-1,-1,-1,-1,-1],"loss_changes":[1.8222691E4,2.0773795E4,2.3656297E4,1.0085342E4,7.737707E3,1.1276894E4,2.4228965E4,0E0,0E0,0E0,0E0,0E0,0E0,0E0,0E0],"parents":[2147483647,0,0,1,1,2,2,3,3,4,4,5,5,6,6],"right_children":[2,4,6,8,10,12,14,-1,-1,-1,-1,-1,-1,-1,-1],"split_conditions":[3.4E1,1.07E2,1.6E2,2.8E1,1.22833336E2,1.29E2,9.2E1,-3.947444E-2,4.2845393E-3,-5.0773734E-1,-1.6988639E0,4.8196834E-2,-1.0042908E0,2.3568938E0,4.1300398E-1],"split_indices":[29,12,1,1,38,28,14,0,0,0,0,0,0,0,0],"split_type":[0,0,0,0,0,0,0,0,0,0,0,0,0,0,0],"sum_hessian":[7.2771E4,5.8862E4,1.3909E4,5.875E4,1.12E2,1.3812E4,9.7E1,1.9922E4,3.8828E4,9.7E1,1.5E1,1.3788E4,2.4E1,1.9E1,7.8E1],"tree_param":{"num_deleted":"0","num_feature":"45","num_nodes":"15","size_leaf_vector":"1"}},{"base_weights":[5.006619E-3,-1.8432944E-1,1.2379625E0,-7.5642544E-1,1.3134377E-1,-7.5327697E0,1.4279157E0,-1.4210078E-1,-3.352273E-2,-3.0835459E-2,2.0751795E-2,-2.7690795E-1,-1.3114718E0,7.399254E-2,-1.2687852E0],"categories":[],"categories_nodes":[],"categories_segments":[],"categories_sizes":[],"default_left":[0,0,0,0,0,0,0,0,0,0,0,0,0,0,0],"id":74,"left_children":[1,3,5,7,9,11,13,-1,-1,-1,-1,-1,-1,-1,-1],"loss_changes":[1.7063613E4,1.1443547E4,1.6226818E4,4.0366875E3,8.666128E3,7.4798477E3,1.33139E4,0E0,0E0,0E0,0E0,0E0,0E0,0E0,0E0],"parents":[2147483647,0,0,1,1,2,2,3,3,4,4,5,5,6,6],"right_children":[2,4,6,8,10,12,14,-1,-1,-1,-1,-1,-1,-1,-1],"split_conditions":[6.7E1,3.7E1,4.4E1,8E0,3.1E1,1.3416667E2,1.84E2,-1.4210078E-1,-3.352273E-2,-3.0835459E-2,2.0751795E-2,-2.7690795E-1,-1.3114718E0,7.399254E-2,-1.2687852E0],"split_indices":[20,4,19,14,2,34,14,0,0,0,0,0,0,0,0],"split_type":[0,0,0,0,0,0,0,0,0,0,0,0,0,0,0],"sum_hessian":[7.3092E4,6.3363E4,9.729E3,2.253E4,4.0833E4,2.05E2,9.524E3,8.9E2,2.164E4,1.1227E4,2.9606E4,1.87E2,1.8E1,9.507E3,1.7E1],"tree_param":{"num_deleted":"0","num_feature":"45","num_nodes":"15","size_leaf_vector":"1"}},{"base_weights":[8.784276E-3,2.0147802E-2,-1.9962505E1,1.6271837E-2,3.1408365E0,-8.914286E0,-1.9802996E0,-2.91799E-3,1.5195702E-1,7.149376E-1,-9.5120806E-1],"categories":[],"categories_nodes":[],"categories_segments":[],"categories_sizes":[],"default_left":[0,0,0,0,0,0,0,0,0,0,0],"id":75,"left_children":[1,3,5,7,-1,9,-1,-1,-1,-1,-1],"loss_changes":[1.6561797E4,1.7746438E4,8.472121E3,1.645606E4,0E0,7.096911E3,0E0,0E0,0E0,0E0,0E0],"parents":[2147483647,0,0,1,1,2,2,3,3,5,5],"right_children":[2,4,6,8,-1,10,-1,-1,-1,-1,-1],"split_conditions":[1.81E2,2.36E2,1.8E2,8.1E1,3.1408365E0,8E0,-1.9802996E0,-2.91799E-3,1.5195702E-1,7.149376E-1,-9.5120806E-1],"split_indices":[13,18,12,24,0,3,0,0,0,0,0],"split_type":[0,0,0,0,0,0,0,0,0,0,0],"sum_hessian":[7.2982E4,7.2942E4,4E1,7.2939E4,3E0,2.7E1,1.3E1,7.1183E4,1.756E3,8E0,1.9E1],"tree_param":{"num_deleted":"0","num_feature":"45","num_nodes":"11","size_leaf_vector":"1"}},{"base_weights":[1.1932326E-2,-1.881653E-1,1.1598802E0,-5.200581E0,-1.5478781E-1,1.2184755E0,-2.5765234E1,-4.104932E-1,-2.1570194E-1,-5.0501663E-2,-1.9841814E-4,5.1446117E-2,4.5065123E-1,-7.784137E-1,-1.6431183E0],"categories":[],"categories_nodes":[],"categories_segments":[],"categories_sizes":[],"default_left":[0,0,0,0,0,0,0,0,0,0,0,0,0,0,0],"id":76,"left_children":[1,3,5,7,9,11,13,-1,-1,-1,-1,-1,-1,-1,-1],"loss_changes":[1.6701227E4,1.0356839E4,1.7071793E4,1.0381074E3,7.933599E3,1.5898291E4,9.28417E2,0E0,0E0,0E0,0E0,0E0,0E0,0E0,0E0],"parents":[2147483647,0,0,1,1,2,2,3,3,4,4,5,5,6,6],"right_children":[2,4,6,8,10,12,14,-1,-1,-1,-1,-1,-1,-1,-1],"split_conditions":[6.6E1,-9E0,1.84E2,-1.3E1,2.4E1,8.5E1,1.05E2,-4.104932E-1,-2.1570194E-1,-5.0501663E-2,-1.9841814E-4,5.1446117E-2,4.5065123E-1,-7.784137E-1,-1.6431183E0],"split_indices":[20,39,14,42,11,26,10,0,0,0,0,0,0,0,0],"split_type":[0,0,0,0,0,0,0,0,0,0,0,0,0,0,0],"sum_hessian":[7.2705E4,6.1914E4,1.0791E4,4.08E2,6.1506E4,1.0769E4,2.2E1,9E1,3.18E2,9.219E3,5.2287E4,1.0515E4,2.54E2,1.1E1,1.1E1],"tree_param":{"num_deleted":"0","num_feature":"45","num_nodes":"15","size_leaf_vector":"1"}},{"base_weights":[2.5824232E-2,-9.331324E-2,1.7492343E0,1.2021192E-1,-7.714774E-1,-4.908679E0,2.277837E0,-3.1951856E-2,1.7284084E-2,-2.5393847E-2,-8.001553E-2,-1.6426791E-1,-1.1091031E0,9.424927E-2,9.122918E-1],"categories":[],"categories_nodes":[],"categories_segments":[],"categories_sizes":[],"default_left":[0,0,0,0,0,0,0,0,0,0,0,0,0,0,0],"id":77,"left_children":[1,3,5,7,9,11,13,-1,-1,-1,-1,-1,-1,-1,-1],"loss_changes":[1.4938974E4,9.854698E3,1.6573482E4,8.860719E3,3.559042E3,9.604082E3,2.7293771E4,0E0,0E0,0E0,0E0,0E0,0E0,0E0,0E0],"parents":[2147483647,0,0,1,1,2,2,3,3,4,4,5,5,6,6],"right_children":[2,4,6,8,10,12,14,-1,-1,-1,-1,-1,-1,-1,-1],"split_conditions":[7.4E1,2.5E1,7E1,1.7E1,3.2E1,1.58E2,1.56E2,-3.1951856E-2,1.7284084E-2,-2.5393847E-2,-8.001553E-2,-1.6426791E-1,-1.1091031E0,9.424927E-2,9.122918E-1],"split_indices":[2,3,14,29,3,11,12,0,0,0,0,0,0,0,0],"split_type":[0,0,0,0,0,0,0,0,0,0,0,0,0,0,0],"sum_hessian":[7.2755E4,6.8052E4,4.703E3,5.1757E4,1.6295E4,3.45E2,4.358E3,1.185E4,3.9907E4,1.2365E4,3.93E3,3.17E2,2.8E1,4.255E3,1.03E2],"tree_param":{"num_deleted":"0","num_feature":"45","num_nodes":"15","size_leaf_vector":"1"}},{"base_weights":[-8.711679E-3,-1.676423E-1,1.139079E0,-2.2114565E0,-9.407417E-2,-7.1009555E0,1.319561E0,-1.2096312E-1,2.9923165E-1,-4.3975715E-2,3.7538204E-3,-2.6896128E-1,-1.3717914E0,5.210601E-2,3.1308982E-1],"categories":[],"categories_nodes":[],"categories_segments":[],"categories_sizes":[],"default_left":[0,0,0,0,0,0,0,0,0,0,0,0,0,0,0],"id":78,"left_children":[1,3,5,7,9,11,13,-1,-1,-1,-1,-1,-1,-1,-1],"loss_changes":[1.3314867E4,9.639537E3,1.3215898E4,3.8152266E3,8.222408E3,6.4449688E3,1.1902957E4,0E0,0E0,0E0,0E0,0E0,0E0,0E0,0E0],"parents":[2147483647,0,0,1,1,2,2,3,3,4,4,5,5,6,6],"right_children":[2,4,6,8,10,12,14,-1,-1,-1,-1,-1,-1,-1,-1],"split_conditions":[6.8E1,-4E0,4.4E1,8.8901716E-1,2.8E1,1.2866667E2,9.4E1,-1.2096312E-1,2.9923165E-1,-4.3975715E-2,3.7538204E-3,-2.6896128E-1,-1.3717914E0,5.210601E-2,3.1308982E-1],"split_indices":[20,42,19,6,14,35,2,0,0,0,0,0,0,0,0],"split_type":[0,0,0,0,0,0,0,0,0,0,0,0,0,0,0],"sum_hessian":[7.2988E4,6.4112E4,8.876E3,2.226E3,6.1886E4,1.89E2,8.687E3,2.172E3,5.4E1,1.0965E4,5.0921E4,1.76E2,1.3E1,8.227E3,4.6E2],"tree_param":{"num_deleted":"0","num_feature":"45","num_nodes":"15","size_leaf_vector":"1"}},{"base_weights":[6.2186983E-3,-3.3882278E-1,5.332394E-1,-3.185992E-1,-1.1376986E1,4.384308E-1,5.9546504E0,-8.711411E-2,-1.0225951E-2,-7.763787E-1,-1.5711226E-2,2.2667145E-2,-9.616141E-1,-6.028832E-1,4.1224605E-1],"categories":[],"categories_nodes":[],"categories_segments":[],"categories_sizes":[],"default_left":[0,0,0,0,0,0,0,0,0,0,0,0,0,0,0],"id":79,"left_children":[1,3,5,7,9,11,13,-1,-1,-1,-1,-1,-1,-1,-1],"loss_changes":[1.3253537E4,9.825945E3,1.4817827E4,7.14021E3,3.687412E3,8.32524E3,2.0589627E4,0E0,0E0,0E0,0E0,0E0,0E0,0E0,0E0],"parents":[2147483647,0,0,1,1,2,2,3,3,4,4,5,5,6,6],"right_children":[2,4,6,8,10,12,14,-1,-1,-1,-1,-1,-1,-1,-1],"split_conditions":[3.3380687E-1,7.4E1,7.6E1,-3E0,9.749279E-1,1.3416667E2,5.2E1,-8.711411E-2,-1.0225951E-2,-7.763787E-1,-1.5711226E-2,2.2667145E-2,-9.616141E-1,-6.028832E-1,4.1224605E-1],"split_indices":[6,27,1,42,7,34,19,0,0,0,0,0,0,0,0],"split_type":[0,0,0,0,0,0,0,0,0,0,0,0,0,0,0],"sum_hessian":[7.2881E4,4.4045E4,2.8836E4,4.3966E4,7.9E1,2.8342E4,4.94E2,3.26E3,4.0706E4,5.7E1,2.2E1,2.8322E4,2E1,5.5E1,4.39E2],"tree_param":{"num_deleted":"0","num_feature":"45","num_nodes":"15","size_leaf_vector":"1"}},{"base_weights":[-9.112851E-3,-3.278623E-1,5.2217966E-1,-1.7258543E0,-1.9722769E-1,5.378119E-1,-2.7111807E1,-8.057674E-2,-7.0474243E-1,-6.914958E-3,-1.630074E-1,2.3321833E-2,4.4487196E-1,-1.7091731E0,-4.7082072E-1],"categories":[],"categories_nodes":[],"categories_segments":[],"categories_sizes":[],"default_left":[0,0,0,0,0,0,0,0,0,0,0,0,0,0,0],"id":80,"left_children":[1,3,5,7,9,11,13,-1,-1,-1,-1,-1,-1,-1,-1],"loss_changes":[1.2361119E4,8.330975E3,1.1842756E4,5.476908E3,7.5299795E3,1.6315652E4,1.4524141E3,0E0,0E0,0E0,0E0,0E0,0E0,0E0,0E0],"parents":[2147483647,0,0,1,1,2,2,3,3,4,4,5,5,6,6],"right_children":[2,4,6,8,10,12,14,-1,-1,-1,-1,-1,-1,-1,-1],"split_conditions":[3.9073113E-1,-4E0,1.35E2,8.6E1,1.1E1,1.22833336E2,9E0,-8.057674E-2,-7.0474243E-1,-6.914958E-3,-1.630074E-1,2.3321833E-2,4.4487196E-1,-1.7091731E0,-4.7082072E-1],"split_indices":[6,44,41,27,44,38,3,0,0,0,0,0,0,0,0],"split_type":[0,0,0,0,0,0,0,0,0,0,0,0,0,0,0],"sum_hessian":[7.2989E4,4.562E4,2.7369E4,3.897E3,4.1723E4,2.7355E4,1.4E1,3.863E3,3.4E1,4.0937E4,7.86E2,2.7125E4,2.3E2,9E0,5E0],"tree_param":{"num_deleted":"0","num_feature":"45","num_nodes":"15","size_leaf_vector":"1"}},{"base_weights":[-1.1467073E-2,2.6501328E-2,-4.3561993E0,-2.6203686E-2,4.3844852E0,-5.062594E0,3.8135708E1,-1.025058E-1,2.653881E-3,2.3345506E-1,-1.7101564E0,-1.9282809E-1,-8.294694E-1,3.5345733E0,-1.4406786E0],"categories":[],"categories_nodes":[],"categories_segments":[],"categories_sizes":[],"default_left":[0,0,0,0,0,0,0,0,0,0,0,0,0,0,0],"id":81,"left_children":[1,3,5,7,9,11,13,-1,-1,-1,-1,-1,-1,-1,-1],"loss_changes":[1.2024808E4,1.6597951E4,1.9241436E4,1.1456854E4,9.720111E3,8.555787E3,2.594514E4,0E0,0E0,0E0,0E0,0E0,0E0,0E0,0E0],"parents":[2147483647,0,0,1,1,2,2,3,3,4,4,5,5,6,6],"right_children":[2,4,6,8,10,12,14,-1,-1,-1,-1,-1,-1,-1,-1],"split_conditions":[1.4E1,7.7E1,2.52E2,-4E0,2.59E2,1.3566667E2,5.3729963E-1,-1.025058E-1,2.653881E-3,2.3345506E-1,-1.7101564E0,-1.9282809E-1,-8.294694E-1,3.5345733E0,-1.4406786E0],"split_indices":[40,15,11,42,12,31,5,0,0,0,0,0,0,0,0],"split_type":[0,0,0,0,0,0,0,0,0,0,0,0,0,0,0],"sum_hessian":[7.2889E4,7.2259E4,6.3E2,7.1397E4,8.62E2,6.21E2,9E0,2.69E3,6.8707E4,8.57E2,5E0,5.64E2,5.7E1,6E0,3E0],"tree_param":{"num_deleted":"0","num_feature":"45","num_nodes":"15","size_leaf_vector":"1"}},{"base_weights":[1.5993249E-3,4.7974408E-2,-3.518717E0,-5.0652977E-3,3.838832E0,-3.7532735E0,1.882992E0,-3.0413479E-2,9.656388E-3,2.0476483E-1,-1.5324596E0,-1.733251E-1,-1.5694791E0],"categories":[],"categories_nodes":[],"categories_segments":[],"categories_sizes":[],"default_left":[0,0,0,0,0,0,0,0,0,0,0,0,0],"id":82,"left_children":[1,3,5,7,9,11,-1,-1,-1,-1,-1,-1,-1],"loss_changes":[1.1896704E4,1.4462384E4,9.360245E3,8.480621E3,8.964227E3,7.310823E3,0E0,0E0,0E0,0E0,0E0,0E0,0E0],"parents":[2147483647,0,0,1,1,2,2,3,3,4,4,5,5],"right_children":[2,4,6,8,10,12,-1,-1,-1,-1,-1,-1,-1],"split_conditions":[1.1E1,8.4E1,2.38E2,1.9E1,2.51E2,1.94E2,1.882992E0,-3.0413479E-2,9.656388E-3,2.0476483E-1,-1.5324596E0,-1.733251E-1,-1.5694791E0],"split_indices":[44,20,12,25,27,12,0,0,0,0,0,0,0],"split_type":[0,0,0,0,0,0,0,0,0,0,0,0,0],"sum_hessian":[7.2871E4,7.1925E4,9.46E2,7.0934E4,9.91E2,9.42E2,4E0,1.7542E4,5.3392E4,9.85E2,6E0,9.34E2,8E0],"tree_param":{"num_deleted":"0","num_feature":"45","num_nodes":"13","size_leaf_vector":"1"}},{"base_weights":[-4.8047844E-3,-1.0788042E-2,3.232827E1,-4.98981E-3,-3.3843456E1,8.762745E1,-1.4711612E0,-1.5781112E-2,2.5119323E-2,-1.8963584E0,-6.959457E-1,6.2366037E0,1.0645727E0],"categories":[],"categories_nodes":[],"categories_segments":[],"categories_sizes":[],"default_left":[0,0,0,0,0,0,0,0,0,0,0,0,0],"id":83,"left_children":[1,3,5,7,9,11,-1,-1,-1,-1,-1,-1,-1],"loss_changes":[1.4115889E4,1.4310568E4,4.9973133E4,1.149887E4,2.200332E2,1.4462105E4,0E0,0E0,0E0,0E0,0E0,0E0,0E0],"parents":[2147483647,0,0,1,1,2,2,3,3,4,4,5,5],"right_children":[2,4,6,8,10,12,-1,-1,-1,-1,-1,-1,-1],"split_conditions":[2.38E2,2.02E2,8E0,3.786486E-1,1.1E1,8.5264015E-1,-1.4711612E0,-1.5781112E-2,2.5119323E-2,-1.8963584E0,-6.959457E-1,6.2366037E0,1.0645727E0],"split_indices":[12,12,3,6,3,6,0,0,0,0,0,0,0],"split_type":[0,0,0,0,0,0,0,0,0,0,0,0,0],"sum_hessian":[7.2979E4,7.2967E4,1.2E1,7.2956E4,1.1E1,6E0,6E0,4.5252E4,2.7704E4,8E0,3E0,3E0,3E0],"tree_param":{"num_deleted":"0","num_feature":"45","num_nodes":"13","size_leaf_vector":"1"}},{"base_weights":[-1.3166152E-2,-3.9494627E0,2.5563437E-2,-3.472325E0,-1.7692535E1,-3.059309E-2,2.9853063E0,-1.9879776E-1,8.101082E-1,-1.2819505E-1,-1.132701E0,-1.7864534E-4,-2.3429616E-1,-4.4861588E-1,1.8011995E-1],"categories":[],"categories_nodes":[],"categories_segments":[],"categories_sizes":[],"default_left":[0,0,0,0,0,0,0,0,0,0,0,0,0,0,0],"id":84,"left_children":[1,3,5,7,9,11,13,-1,-1,-1,-1,-1,-1,-1,-1],"loss_changes":[1.1132756E4,4.5712783E3,1.2019246E4,6.9274336E3,1.6742749E3,8.92623E3,9.983716E3,0E0,0E0,0E0,0E0,0E0,0E0,0E0,0E0],"parents":[2147483647,0,0,1,1,2,2,3,3,4,4,5,5,6,6],"right_children":[2,4,6,8,10,12,14,-1,-1,-1,-1,-1,-1,-1,-1],"split_conditions":[-8E0,1.01E2,8.2E1,1.77E2,4.8E1,1.2E1,5.1E1,-1.9879776E-1,8.101082E-1,-1.2819505E-1,-1.132701E0,-1.7864534E-4,-2.3429616E-1,-4.4861588E-1,1.8011995E-1],"split_indices":[39,19,21,15,4,39,19,0,0,0,0,0,0,0,0],"split_type":[0,0,0,0,0,0,0,0,0,0,0,0,0,0,0],"sum_hessian":[7.302E4,7.1E2,7.231E4,6.88E2,2.2E1,7.0965E4,1.345E3,6.72E2,1.6E1,6E0,1.6E1,7.0557E4,4.08E2,6.5E1,1.28E3],"tree_param":{"num_deleted":"0","num_feature":"45","num_nodes":"15","size_leaf_vector":"1"}},{"base_weights":[-1.2016073E-2,-1.8195435E-2,3.5930244E1,-2.1651186E-2,2.2828531E0,5.2295547E0,-1.482623E1,-7.8644353E-4,-1.7228692E0,-1.4077858E0,3.192608E-1],"categories":[],"categories_nodes":[],"categories_segments":[],"categories_sizes":[],"default_left":[0,0,0,0,0,0,0,0,0,0,0],"id":85,"left_children":[1,3,5,7,-1,-1,9,-1,-1,-1,-1],"loss_changes":[1.61508545E4,1.1475133E4,4.5897293E4,1.4825289E4,0E0,0E0,2.6751172E3,0E0,0E0,0E0,0E0],"parents":[2147483647,0,0,1,1,2,2,3,3,6,6],"right_children":[2,4,6,8,-1,-1,10,-1,-1,-1,-1],"split_conditions":[3.72E2,3.94E2,2.51E2,3.16E2,2.2828531E0,5.2295547E0,8.2658976E-1,-7.8644353E-4,-1.7228692E0,-1.4077858E0,3.192608E-1],"split_indices":[15,17,25,17,0,0,6,0,0,0,0],"split_type":[0,0,0,0,0,0,0,0,0,0,0],"sum_hessian":[7.2729E4,7.2718E4,1.1E1,7.2714E4,4E0,4E0,7E0,7.2703E4,1.1E1,4E0,3E0],